{"epoch": 9, "loss": 7684.38330078125, "_runtime": 172, "_timestamp": 1646865883, "_step": 32745, "parameters/encoder.lstm1.weight_ih_l0": {"_type": "histogram", "values": [7.0, 18.0, 40.0, 84.0, 136.0, 213.0, 289.0, 328.0, 369.0, 352.0, 399.0, 350.0, 360.0, 375.0, 382.0, 366.0, 382.0, 370.0, 398.0, 395.0, 371.0, 394.0, 364.0, 377.0, 340.0, 360.0, 365.0, 378.0, 370.0, 413.0, 396.0, 363.0, 358.0, 400.0, 356.0, 369.0, 393.0, 404.0, 362.0, 361.0, 384.0, 372.0, 383.0, 359.0, 364.0, 369.0, 366.0, 416.0, 371.0, 371.0, 376.0, 349.0, 379.0, 371.0, 374.0, 341.0, 328.0, 277.0, 278.0, 192.0, 114.0, 70.0, 32.0, 9.0], "bins": [-0.20468656718730927, -0.19820867478847504, -0.191730797290802, -0.18525290489196777, -0.17877502739429474, -0.1722971349954605, -0.16581925749778748, -0.15934136509895325, -0.1528634876012802, -0.14638559520244598, -0.13990771770477295, -0.13342982530593872, -0.12695194780826569, -0.12047405540943146, -0.11399617791175842, -0.1075182855129242, -0.10104040056467056, -0.09456251561641693, -0.0880846306681633, -0.08160674571990967, -0.07512886077165604, -0.0686509758234024, -0.062173087149858475, -0.05569520220160484, -0.04921731725335121, -0.04273943230509758, -0.03626154735684395, -0.029783660545945168, -0.023305775597691536, -0.016827888786792755, -0.010350003838539124, -0.003872118890285492, 0.0026057660579681396, 0.009083651006221771, 0.015561536885797977, 0.022039422765374184, 0.028517307713627815, 0.034995194524526596, 0.04147307947278023, 0.04795096442103386, 0.05442884936928749, 0.06090673431754112, 0.06738462299108505, 0.07386250793933868, 0.08034039288759232, 0.08681827783584595, 0.09329616278409958, 0.09977404773235321, 0.10625193268060684, 0.11272981762886047, 0.1192077025771141, 0.12568558752536774, 0.13216347992420197, 0.138641357421875, 0.14511924982070923, 0.15159712731838226, 0.1580750197172165, 0.16455291211605072, 0.17103078961372375, 0.17750868201255798, 0.18398655951023102, 0.19046445190906525, 0.19694232940673828, 0.2034202218055725, 0.20989809930324554]}, "parameters/encoder.lstm1.weight_hh_l0": {"_type": "histogram", "values": [2.0, 12.0, 31.0, 29.0, 27.0, 58.0, 51.0, 79.0, 77.0, 91.0, 63.0, 71.0, 71.0, 79.0, 58.0, 64.0, 71.0, 69.0, 84.0, 72.0, 81.0, 75.0, 82.0, 73.0, 72.0, 68.0, 75.0, 74.0, 79.0, 82.0, 68.0, 68.0, 65.0, 69.0, 55.0, 76.0, 70.0, 84.0, 81.0, 71.0, 71.0, 66.0, 67.0, 66.0, 84.0, 90.0, 76.0, 63.0, 87.0, 73.0, 87.0, 65.0, 70.0, 82.0, 80.0, 73.0, 53.0, 60.0, 49.0, 40.0, 26.0, 24.0, 14.0, 3.0], "bins": [-0.2049800455570221, -0.1985807567834854, -0.19218148291110992, -0.18578219413757324, -0.17938290536403656, -0.17298361659049988, -0.1665843427181244, -0.1601850539445877, -0.15378576517105103, -0.14738647639751434, -0.14098720252513885, -0.13458791375160217, -0.1281886249780655, -0.1217893436551094, -0.11539006233215332, -0.10899077355861664, -0.10259149968624115, -0.09619221836328506, -0.08979292958974838, -0.0833936482667923, -0.07699435949325562, -0.07059507817029953, -0.06419579684734344, -0.05779651179909706, -0.05139722675085068, -0.044997941702604294, -0.03859865665435791, -0.032199375331401825, -0.02580009028315544, -0.019400805234909058, -0.013001523911952972, -0.006602238863706589, -0.00020293891429901123, 0.006196345202624798, 0.012595629319548607, 0.01899491250514984, 0.025394197553396225, 0.03179348260164261, 0.038192763924598694, 0.04459204897284508, 0.05099133402109146, 0.057390619069337845, 0.06378990411758423, 0.07018918544054031, 0.0765884667634964, 0.08298775553703308, 0.08938703685998917, 0.09578631818294525, 0.10218560695648193, 0.10858488827943802, 0.1149841770529747, 0.12138345837593079, 0.12778274714946747, 0.13418203592300415, 0.14058130979537964, 0.14698059856891632, 0.153379887342453, 0.15977917611598969, 0.16617844998836517, 0.17257773876190186, 0.17897702753543854, 0.18537631630897522, 0.1917755901813507, 0.1981748789548874, 0.20457415282726288]}, "parameters/encoder.lstm1.bias_ih_l0": {"_type": "histogram", "values": [1.0, 1.0, 0.0, 2.0, 1.0, 2.0, 1.0, 2.0, 0.0, 2.0, 2.0, 0.0, 3.0, 4.0, 2.0, 4.0, 0.0, 5.0, 4.0, 1.0, 2.0, 2.0, 1.0, 2.0, 1.0, 2.0, 4.0, 0.0, 6.0, 5.0, 3.0, 1.0, 5.0, 1.0, 2.0, 2.0, 0.0, 6.0, 2.0, 3.0, 2.0, 2.0, 1.0, 2.0, 3.0, 2.0, 1.0, 0.0, 5.0, 3.0, 1.0, 2.0, 3.0, 0.0, 1.0, 1.0, 1.0, 2.0, 3.0, 0.0, 2.0, 2.0, 1.0, 1.0], "bins": [-0.16566382348537445, -0.15991738438606262, -0.154170960187912, -0.14842452108860016, -0.14267808198928833, -0.1369316428899765, -0.13118521869182587, -0.12543877959251404, -0.11969234049320221, -0.11394590884447098, -0.10819946974515915, -0.10245303809642792, -0.09670659899711609, -0.09096016734838486, -0.08521373569965363, -0.0794672966003418, -0.07372086495161057, -0.06797443330287933, -0.062227994203567505, -0.05648156255483627, -0.050735123455524445, -0.04498869180679321, -0.03924225643277168, -0.03349582105875015, -0.027749385684728622, -0.022002950310707092, -0.016256514936685562, -0.010510081425309181, -0.004763646051287651, 0.000982789322733879, 0.00672922283411026, 0.01247565820813179, 0.01822209358215332, 0.02396852895617485, 0.02971496433019638, 0.03546139597892761, 0.04120783507823944, 0.04695426672697067, 0.0527007021009922, 0.05844713747501373, 0.06419357657432556, 0.0699400082230568, 0.07568644732236862, 0.08143287897109985, 0.08717931807041168, 0.09292574971914291, 0.09867218136787415, 0.10441862046718597, 0.1101650521159172, 0.11591148376464844, 0.12165792286396027, 0.1274043619632721, 0.13315078616142273, 0.13889722526073456, 0.1446436643600464, 0.15039008855819702, 0.15613652765750885, 0.16188296675682068, 0.1676293909549713, 0.17337583005428314, 0.17912226915359497, 0.1848687082529068, 0.19061513245105743, 0.19636157155036926, 0.2021080106496811]}, "parameters/encoder.lstm1.bias_hh_l0": {"_type": "histogram", "values": [3.0, 3.0, 0.0, 0.0, 2.0, 2.0, 2.0, 5.0, 5.0, 1.0, 2.0, 2.0, 4.0, 3.0, 3.0, 0.0, 1.0, 2.0, 2.0, 5.0, 2.0, 0.0, 1.0, 2.0, 3.0, 3.0, 1.0, 2.0, 2.0, 2.0, 3.0, 0.0, 2.0, 2.0, 3.0, 2.0, 1.0, 1.0, 2.0, 1.0, 2.0, 0.0, 2.0, 3.0, 1.0, 2.0, 3.0, 1.0, 1.0, 2.0, 1.0, 4.0, 2.0, 3.0, 5.0, 4.0, 2.0, 1.0, 0.0, 1.0, 1.0, 3.0, 1.0, 1.0], "bins": [-0.16735808551311493, -0.1616937816143036, -0.15602947771549225, -0.1503651738166809, -0.14470086991786957, -0.13903656601905823, -0.1333722472190857, -0.12770795822143555, -0.12204364687204361, -0.11637934297323227, -0.11071503907442093, -0.10505072772502899, -0.09938642382621765, -0.09372211992740631, -0.08805781602859497, -0.08239351212978363, -0.07672920823097229, -0.07106490433216095, -0.06540060043334961, -0.05973629280924797, -0.05407198891043663, -0.04840768501162529, -0.04274337738752365, -0.03707907348871231, -0.03141476958990097, -0.02575046569108963, -0.02008615992963314, -0.014421854168176651, -0.00875755026936531, -0.0030932463705539703, 0.0025710612535476685, 0.008235365152359009, 0.013899654150009155, 0.019563958048820496, 0.025228263810276985, 0.030892569571733475, 0.036556873470544815, 0.042221177369356155, 0.047885484993457794, 0.053549788892269135, 0.059214092791080475, 0.06487839668989182, 0.07054270058870316, 0.07620701193809509, 0.08187131583690643, 0.08753561973571777, 0.09319992363452911, 0.09886422753334045, 0.1045285314321518, 0.11019283533096313, 0.11585713922977448, 0.12152144312858582, 0.12718574702739716, 0.1328500509262085, 0.13851436972618103, 0.14417865872383118, 0.1498429775238037, 0.15550728142261505, 0.1611715853214264, 0.16683588922023773, 0.17250019311904907, 0.1781644970178604, 0.18382880091667175, 0.1894931197166443, 0.19515740871429443]}, "parameters/encoder.lstm2.weight_ih_l0": {"_type": "histogram", "values": [4.0, 11.0, 13.0, 16.0, 47.0, 43.0, 46.0, 68.0, 54.0, 65.0, 63.0, 76.0, 73.0, 83.0, 82.0, 66.0, 80.0, 74.0, 84.0, 82.0, 81.0, 61.0, 80.0, 79.0, 74.0, 76.0, 67.0, 72.0, 65.0, 70.0, 77.0, 65.0, 68.0, 79.0, 70.0, 79.0, 101.0, 80.0, 89.0, 67.0, 66.0, 76.0, 82.0, 63.0, 91.0, 85.0, 87.0, 87.0, 89.0, 70.0, 62.0, 82.0, 74.0, 72.0, 49.0, 86.0, 54.0, 45.0, 46.0, 33.0, 34.0, 15.0, 8.0, 10.0], "bins": [-0.21191613376140594, -0.20532318949699402, -0.1987302452325821, -0.19213730096817017, -0.18554434180259705, -0.17895139753818512, -0.1723584532737732, -0.16576550900936127, -0.15917256474494934, -0.15257962048053741, -0.1459866762161255, -0.13939371705055237, -0.13280077278614044, -0.12620782852172852, -0.11961488425731659, -0.11302193999290466, -0.10642898082733154, -0.09983603656291962, -0.0932430848479271, -0.08665014058351517, -0.08005718886852264, -0.07346424460411072, -0.06687130033969879, -0.06027835234999657, -0.05368540436029434, -0.04709245637059212, -0.04049950838088989, -0.033906564116477966, -0.02731361612677574, -0.020720668137073517, -0.01412772387266159, -0.007534775882959366, -0.0009418278932571411, 0.005651119165122509, 0.012244066223502159, 0.018837012350559235, 0.02542996034026146, 0.032022908329963684, 0.03861585259437561, 0.045208800584077835, 0.05180174857378006, 0.058394696563482285, 0.06498764455318451, 0.07158058881759644, 0.07817353308200836, 0.08476648479700089, 0.09135942906141281, 0.09795238077640533, 0.10454532504081726, 0.11113826930522919, 0.11773122102022171, 0.12432416528463364, 0.13091711699962616, 0.13751006126403809, 0.14410300552845, 0.15069594979286194, 0.15728890895843506, 0.16388185322284698, 0.1704747974872589, 0.17706775665283203, 0.18366070091724396, 0.19025364518165588, 0.1968465894460678, 0.20343953371047974, 0.21003247797489166]}, "parameters/encoder.lstm2.weight_hh_l0": {"_type": "histogram", "values": [6.0, 12.0, 23.0, 19.0, 34.0, 24.0, 48.0, 47.0, 48.0, 39.0, 68.0, 64.0, 65.0, 65.0, 85.0, 84.0, 86.0, 70.0, 68.0, 78.0, 74.0, 71.0, 74.0, 79.0, 75.0, 77.0, 57.0, 84.0, 78.0, 64.0, 87.0, 73.0, 75.0, 82.0, 72.0, 82.0, 82.0, 91.0, 74.0, 82.0, 80.0, 97.0, 89.0, 79.0, 86.0, 86.0, 77.0, 76.0, 92.0, 65.0, 81.0, 71.0, 79.0, 53.0, 65.0, 58.0, 50.0, 42.0, 48.0, 48.0, 43.0, 34.0, 22.0, 9.0], "bins": [-0.2190544605255127, -0.2123018056154251, -0.20554913580417633, -0.19879648089408875, -0.19204382598400116, -0.18529117107391357, -0.1785385012626648, -0.1717858463525772, -0.16503319144248962, -0.15828053653240204, -0.15152786672115326, -0.14477521181106567, -0.1380225569009781, -0.1312699019908905, -0.12451723217964172, -0.11776457726955414, -0.11101190745830536, -0.10425924509763718, -0.09750659018754959, -0.09075392782688141, -0.08400127291679382, -0.07724861055612564, -0.07049594819545746, -0.06374329328536987, -0.05699063092470169, -0.05023797228932381, -0.04348531365394592, -0.03673265129327774, -0.029979992657899857, -0.023227334022521973, -0.01647467166185379, -0.009722013026475906, -0.0029693394899368286, 0.00378332007676363, 0.010535979643464088, 0.01728864014148712, 0.024041298776865005, 0.03079395741224289, 0.03754661977291107, 0.044299278408288956, 0.05105193704366684, 0.057804595679044724, 0.06455725431442261, 0.07130991667509079, 0.07806257903575897, 0.08481523394584656, 0.09156789630651474, 0.09832055866718292, 0.10507321357727051, 0.11182587593793869, 0.11857853084802628, 0.12533119320869446, 0.13208384811878204, 0.13883650302886963, 0.1455891728401184, 0.152341827750206, 0.15909448266029358, 0.16584713757038116, 0.17259980738162994, 0.17935246229171753, 0.18610511720180511, 0.1928577721118927, 0.19961044192314148, 0.20636309683322906, 0.21311576664447784]}, "parameters/encoder.lstm2.bias_ih_l0": {"_type": "histogram", "values": [1.0, 1.0, 2.0, 1.0, 0.0, 4.0, 2.0, 3.0, 4.0, 3.0, 2.0, 2.0, 3.0, 2.0, 3.0, 2.0, 2.0, 1.0, 1.0, 1.0, 2.0, 1.0, 1.0, 0.0, 1.0, 2.0, 3.0, 4.0, 1.0, 2.0, 6.0, 3.0, 6.0, 4.0, 4.0, 2.0, 1.0, 3.0, 3.0, 1.0, 4.0, 1.0, 1.0, 3.0, 0.0, 4.0, 1.0, 0.0, 4.0, 0.0, 0.0, 2.0, 0.0, 2.0, 2.0, 2.0, 2.0, 4.0, 0.0, 1.0, 0.0, 3.0, 1.0, 1.0], "bins": [-0.16912958025932312, -0.1632685661315918, -0.15740756690502167, -0.15154655277729034, -0.14568555355072021, -0.1398245394229889, -0.13396352529525757, -0.12810252606868744, -0.12224151939153671, -0.11638051271438599, -0.11051950603723526, -0.10465849936008453, -0.09879748523235321, -0.09293648600578308, -0.08707547187805176, -0.08121446520090103, -0.0753534585237503, -0.06949245184659958, -0.06363144516944885, -0.05777043476700783, -0.0519094280898571, -0.046048421412706375, -0.04018741101026535, -0.034326404333114624, -0.028465397655963898, -0.02260439097881317, -0.016743382439017296, -0.01088237389922142, -0.005021367222070694, 0.0008396394550800323, 0.006700649857521057, 0.012561656534671783, 0.018422648310661316, 0.024283654987812042, 0.030144663527607918, 0.03600567206740379, 0.04186667874455452, 0.047727685421705246, 0.05358869582414627, 0.059449702501297, 0.06531070917844772, 0.07117171585559845, 0.07703272253274918, 0.0828937292098999, 0.08875474333763123, 0.09461574256420135, 0.10047675669193268, 0.1063377633690834, 0.11219877004623413, 0.11805977672338486, 0.12392078340053558, 0.1297817975282669, 0.13564279675483704, 0.14150381088256836, 0.14736482501029968, 0.1532258242368698, 0.15908682346343994, 0.16494783759117126, 0.1708088368177414, 0.17666985094547272, 0.18253085017204285, 0.18839186429977417, 0.1942528784275055, 0.20011387765407562, 0.20597489178180695]}, "parameters/encoder.lstm2.bias_hh_l0": {"_type": "histogram", "values": [4.0, 5.0, 2.0, 2.0, 3.0, 0.0, 1.0, 0.0, 2.0, 1.0, 1.0, 3.0, 5.0, 1.0, 4.0, 1.0, 2.0, 1.0, 2.0, 0.0, 2.0, 2.0, 1.0, 2.0, 2.0, 2.0, 1.0, 3.0, 4.0, 2.0, 3.0, 1.0, 5.0, 1.0, 0.0, 2.0, 3.0, 2.0, 3.0, 1.0, 0.0, 3.0, 2.0, 1.0, 0.0, 2.0, 1.0, 1.0, 1.0, 4.0, 2.0, 3.0, 2.0, 0.0, 6.0, 2.0, 2.0, 3.0, 3.0, 3.0, 0.0, 1.0, 1.0, 3.0], "bins": [-0.15833334624767303, -0.152842178940773, -0.14735102653503418, -0.14185985922813416, -0.13636869192123413, -0.1308775395154953, -0.12538637220859528, -0.11989521235227585, -0.11440405249595642, -0.108912892639637, -0.10342173278331757, -0.09793056547641754, -0.09243940562009811, -0.08694824576377869, -0.08145707845687866, -0.07596591860055923, -0.07047475874423981, -0.06498359888792038, -0.059492435306310654, -0.05400127172470093, -0.0485101118683815, -0.04301895201206207, -0.03752778843045235, -0.03203662484884262, -0.026545464992523193, -0.021054303273558617, -0.01556314155459404, -0.010071979835629463, -0.0045808181166648865, 0.0009103436022996902, 0.006401505321264267, 0.011892668902873993, 0.017383813858032227, 0.022874975576996803, 0.02836613729596138, 0.033857300877571106, 0.03934846073389053, 0.04483962059020996, 0.05033078417181969, 0.05582194775342941, 0.06131310760974884, 0.06680426746606827, 0.0722954273223877, 0.07778659462928772, 0.08327775448560715, 0.08876891434192657, 0.0942600816488266, 0.09975124150514603, 0.10524240136146545, 0.11073356121778488, 0.11622472107410431, 0.12171588838100433, 0.12720704078674316, 0.1326982080936432, 0.1381893754005432, 0.14368054270744324, 0.14917169511318207, 0.1546628624200821, 0.16015401482582092, 0.16564518213272095, 0.17113634943962097, 0.1766275018453598, 0.18211866915225983, 0.18760982155799866, 0.19310098886489868]}, "parameters/encoder.mean_block.weight": {"_type": "histogram", "values": [1.0, 0.0, 0.0, 1.0, 1.0, 0.0, 0.0, 1.0, 5.0, 1.0, 1.0, 2.0, 5.0, 9.0, 9.0, 9.0, 8.0, 10.0, 9.0, 14.0, 24.0, 13.0, 24.0, 27.0, 28.0, 25.0, 39.0, 42.0, 25.0, 44.0, 49.0, 30.0, 38.0, 43.0, 38.0, 38.0, 42.0, 34.0, 31.0, 35.0, 40.0, 22.0, 31.0, 21.0, 24.0, 19.0, 17.0, 20.0, 14.0, 6.0, 12.0, 6.0, 3.0, 4.0, 6.0, 7.0, 4.0, 2.0, 3.0, 3.0, 2.0, 0.0, 1.0, 2.0], "bins": [-0.6240534782409668, -0.6052602529525757, -0.5864669680595398, -0.5676736831665039, -0.5488804578781128, -0.5300872325897217, -0.5112939476966858, -0.4925006926059723, -0.4737074375152588, -0.4549141824245453, -0.4361209273338318, -0.4173276722431183, -0.3985344171524048, -0.3797411620616913, -0.3609479069709778, -0.3421546518802643, -0.3233613967895508, -0.3045681416988373, -0.2857748866081238, -0.2669816315174103, -0.24818837642669678, -0.22939512133598328, -0.21060186624526978, -0.19180861115455627, -0.17301535606384277, -0.15422210097312927, -0.13542884588241577, -0.11663559079170227, -0.09784233570098877, -0.07904908061027527, -0.06025582551956177, -0.04146257042884827, -0.022669315338134766, -0.0038760602474212646, 0.014917194843292236, 0.03371044993400574, 0.05250370502471924, 0.07129696011543274, 0.09009021520614624, 0.10888347029685974, 0.12767672538757324, 0.14646998047828674, 0.16526323556900024, 0.18405649065971375, 0.20284974575042725, 0.22164300084114075, 0.24043625593185425, 0.25922951102256775, 0.27802276611328125, 0.29681602120399475, 0.31560927629470825, 0.33440253138542175, 0.35319578647613525, 0.37198904156684875, 0.39078229665756226, 0.40957555174827576, 0.42836880683898926, 0.44716206192970276, 0.46595531702041626, 0.48474857211112976, 0.5035418272018433, 0.5223350524902344, 0.5411283373832703, 0.5599216222763062, 0.5787148475646973]}, "parameters/encoder.mean_block.bias": {"_type": "histogram", "values": [1.0, 0.0, 0.0, 0.0, 1.0, 0.0, 0.0, 0.0, 0.0, 0.0, 0.0, 1.0, 0.0, 1.0, 0.0, 0.0, 0.0, 1.0, 1.0, 0.0, 2.0, 1.0, 1.0, 0.0, 0.0, 0.0, 0.0, 0.0, 1.0, 1.0, 1.0, 1.0, 1.0, 1.0, 2.0, 0.0, 0.0, 1.0, 1.0, 1.0, 0.0, 0.0, 0.0, 0.0, 1.0, 2.0, 1.0, 1.0, 2.0, 1.0, 0.0, 0.0, 1.0, 0.0, 0.0, 0.0, 0.0, 1.0, 0.0, 0.0, 0.0, 0.0, 0.0, 1.0], "bins": [-0.025112394243478775, -0.024283351376652718, -0.02345430850982666, -0.022625263780355453, -0.021796220913529396, -0.02096717804670334, -0.02013813517987728, -0.019309092313051224, -0.018480047583580017, -0.01765100471675396, -0.016821961849927902, -0.015992917120456696, -0.015163874253630638, -0.01433483138680458, -0.013505788519978523, -0.012676745653152466, -0.011847702786326408, -0.011018659919500351, -0.010189616121351719, -0.009360573254525661, -0.00853152945637703, -0.007702486589550972, -0.0068734437227249146, -0.00604440039023757, -0.005215357057750225, -0.00438631372526288, -0.0035572706256061792, -0.002728227525949478, -0.0018991841934621334, -0.0010701408609747887, -0.00024109799414873123, 0.0005879453383386135, 0.001416986808180809, 0.0022460301406681538, 0.003075073240324855, 0.003904116339981556, 0.004733159672468901, 0.005562203004956245, 0.006391245871782303, 0.007220289204269648, 0.008049332536756992, 0.00887837540358305, 0.009707419201731682, 0.01053646206855774, 0.011365504935383797, 0.012194548733532429, 0.013023591600358486, 0.013852635398507118, 0.014681678265333176, 0.015510721132159233, 0.01633976399898529, 0.017168808728456497, 0.017997851595282555, 0.018826894462108612, 0.01965593732893467, 0.020484980195760727, 0.021314024925231934, 0.02214306779205799, 0.02297211065888405, 0.023801155388355255, 0.024630198255181313, 0.02545924112200737, 0.026288283988833427, 0.027117326855659485, 0.027946369722485542]}, "parameters/encoder.logvar_block.weight": {"_type": "histogram", "values": [2.0, 1.0, 1.0, 3.0, 2.0, 4.0, 5.0, 4.0, 6.0, 12.0, 18.0, 10.0, 18.0, 18.0, 16.0, 19.0, 25.0, 29.0, 23.0, 28.0, 36.0, 33.0, 19.0, 31.0, 42.0, 54.0, 42.0, 37.0, 39.0, 35.0, 45.0, 40.0, 32.0, 47.0, 26.0, 24.0, 21.0, 23.0, 27.0, 21.0, 18.0, 12.0, 9.0, 10.0, 15.0, 8.0, 12.0, 4.0, 2.0, 3.0, 3.0, 1.0, 0.0, 3.0, 1.0, 2.0, 2.0, 0.0, 0.0, 0.0, 0.0, 0.0, 0.0, 1.0], "bins": [-0.47521889209747314, -0.4575531482696533, -0.4398874044418335, -0.42222166061401367, -0.40455591678619385, -0.386890172958374, -0.3692243993282318, -0.351558655500412, -0.33389291167259216, -0.31622716784477234, -0.2985614240169525, -0.2808956801891327, -0.2632299065589905, -0.24556417763233185, -0.22789841890335083, -0.210232675075531, -0.19256693124771118, -0.17490118741989136, -0.15723544359207153, -0.13956968486309052, -0.12190394103527069, -0.10423819720745087, -0.08657244592905045, -0.06890669465065002, -0.0512409508228302, -0.03357520326972008, -0.015909455716609955, 0.0017562918365001678, 0.01942203938961029, 0.037087783217430115, 0.054753534495830536, 0.07241928577423096, 0.09008502960205078, 0.1077507734298706, 0.12541651725769043, 0.14308227598667145, 0.16074801981449127, 0.1784137636423111, 0.19607952237129211, 0.21374526619911194, 0.23141101002693176, 0.2490767538547516, 0.2667424976825714, 0.28440824151039124, 0.30207401514053345, 0.31973975896835327, 0.3374055027961731, 0.3550712466239929, 0.37273699045181274, 0.39040273427963257, 0.4080684781074524, 0.4257342219352722, 0.44339996576309204, 0.46106570959091187, 0.4787314832210541, 0.4963972270488739, 0.5140630006790161, 0.5317287445068359, 0.5493944883346558, 0.5670602321624756, 0.5847259759902954, 0.6023917198181152, 0.6200574636459351, 0.6377232074737549, 0.6553889513015747]}, "parameters/encoder.logvar_block.bias": {"_type": "histogram", "values": [2.0, 0.0, 0.0, 0.0, 0.0, 0.0, 0.0, 0.0, 0.0, 0.0, 1.0, 0.0, 0.0, 0.0, 0.0, 0.0, 1.0, 1.0, 3.0, 0.0, 1.0, 0.0, 0.0, 0.0, 0.0, 0.0, 2.0, 2.0, 0.0, 1.0, 1.0, 1.0, 4.0, 2.0, 1.0, 0.0, 0.0, 1.0, 2.0, 1.0, 1.0, 0.0, 0.0, 0.0, 0.0, 1.0, 0.0, 0.0, 0.0, 0.0, 0.0, 1.0, 0.0, 0.0, 0.0, 0.0, 0.0, 1.0, 0.0, 0.0, 0.0, 0.0, 0.0, 1.0], "bins": [-0.018234822899103165, -0.017802972346544266, -0.017371121793985367, -0.016939271241426468, -0.01650742068886757, -0.01607556827366352, -0.015643717721104622, -0.015211867168545723, -0.014780016615986824, -0.014348166063427925, -0.013916315510869026, -0.013484464026987553, -0.013052613474428654, -0.012620762921869755, -0.012188911437988281, -0.011757060885429382, -0.011325210332870483, -0.010893359780311584, -0.010461509227752686, -0.010029657743871212, -0.009597807191312313, -0.009165956638753414, -0.00873410515487194, -0.008302254602313042, -0.007870404049754143, -0.007438553497195244, -0.007006702478975058, -0.006574851460754871, -0.0061430009081959724, -0.0057111503556370735, -0.005279299337416887, -0.004847448319196701, -0.004415598697960377, -0.003983748145401478, -0.0035518971271812916, -0.003120046341791749, -0.0026881955564022064, -0.002256344771012664, -0.0018244939856231213, -0.0013926432002335787, -0.0009607924148440361, -0.0005289416294544935, -9.709084406495094e-05, 0.00033475994132459164, 0.0007666107267141342, 0.0011984615121036768, 0.0016303122974932194, 0.002062163082882762, 0.0024940138682723045, 0.002925864653661847, 0.0033577154390513897, 0.0037895662244409323, 0.004221417009830475, 0.004653267562389374, 0.00508511858060956, 0.005516969598829746, 0.005948820151388645, 0.006380670703947544, 0.00681252172216773, 0.0072443727403879166, 0.0076762232929468155, 0.008108073845505714, 0.008539924398064613, 0.008971775881946087, 0.009403626434504986]}, "parameters/decoder.linear.weight": {"_type": "histogram", "values": [1.0, 1.0, 3.0, 1.0, 1.0, 2.0, 2.0, 5.0, 2.0, 9.0, 4.0, 8.0, 10.0, 10.0, 10.0, 19.0, 27.0, 19.0, 28.0, 20.0, 25.0, 30.0, 28.0, 40.0, 30.0, 42.0, 42.0, 29.0, 34.0, 34.0, 46.0, 49.0, 51.0, 48.0, 34.0, 24.0, 32.0, 19.0, 25.0, 20.0, 23.0, 17.0, 17.0, 15.0, 15.0, 14.0, 9.0, 12.0, 8.0, 10.0, 5.0, 3.0, 5.0, 0.0, 1.0, 2.0, 1.0, 0.0, 1.0, 0.0, 0.0, 1.0, 0.0, 1.0], "bins": [-0.5244047045707703, -0.5064198970794678, -0.48843514919281006, -0.47045037150382996, -0.45246559381484985, -0.43448078632354736, -0.41649600863456726, -0.39851123094558716, -0.38052645325660706, -0.36254167556762695, -0.34455689787864685, -0.32657212018966675, -0.30858731269836426, -0.29060256481170654, -0.27261775732040405, -0.25463297963142395, -0.23664820194244385, -0.21866342425346375, -0.20067864656448364, -0.18269385397434235, -0.16470907628536224, -0.14672429859638214, -0.12873950600624084, -0.11075472831726074, -0.09276995062828064, -0.07478517293930054, -0.05680038779973984, -0.03881560638546944, -0.020830824971199036, -0.002846047282218933, 0.015138737857341766, 0.033123522996902466, 0.05110824108123779, 0.0690930187702179, 0.0870778039097786, 0.1050625890493393, 0.1230473667383194, 0.1410321444272995, 0.1590169370174408, 0.1770017147064209, 0.194986492395401, 0.2129712700843811, 0.2309560477733612, 0.2489408403635025, 0.2669256329536438, 0.2849103808403015, 0.302895188331604, 0.3208799660205841, 0.3388647437095642, 0.3568495213985443, 0.3748342990875244, 0.3928190767765045, 0.4108038544654846, 0.4287886619567871, 0.4467734396457672, 0.4647582173347473, 0.4827429950237274, 0.5007277727127075, 0.51871258020401, 0.5366973280906677, 0.5546821355819702, 0.5726668834686279, 0.5906516909599304, 0.6086364984512329, 0.6266212463378906]}, "parameters/decoder.linear.bias": {"_type": "histogram", "values": [1.0, 0.0, 0.0, 0.0, 0.0, 0.0, 0.0, 0.0, 0.0, 0.0, 0.0, 1.0, 0.0, 0.0, 0.0, 0.0, 0.0, 0.0, 0.0, 0.0, 1.0, 0.0, 2.0, 1.0, 1.0, 1.0, 0.0, 0.0, 1.0, 3.0, 0.0, 1.0, 1.0, 0.0, 1.0, 1.0, 3.0, 3.0, 0.0, 0.0, 1.0, 0.0, 0.0, 3.0, 2.0, 1.0, 0.0, 0.0, 0.0, 0.0, 0.0, 1.0, 0.0, 0.0, 0.0, 1.0, 0.0, 0.0, 0.0, 0.0, 0.0, 0.0, 0.0, 1.0], "bins": [-0.021582093089818954, -0.02053644508123398, -0.019490795210003853, -0.018445145338773727, -0.01739949733018875, -0.016353849321603775, -0.01530819945037365, -0.014262550510466099, -0.013216901570558548, -0.012171252630650997, -0.011125603690743446, -0.010079954750835896, -0.009034305810928345, -0.007988656871020794, -0.006943007931113243, -0.005897358991205692, -0.0048517100512981415, -0.0038060611113905907, -0.00276041217148304, -0.001714763231575489, -0.0006691142916679382, 0.0003765346482396126, 0.0014221835881471634, 0.002467832528054714, 0.003513481467962265, 0.004559130407869816, 0.005604779347777367, 0.0066504282876849174, 0.007696077227592468, 0.008741726167500019, 0.00978737510740757, 0.01083302404731512, 0.01187867671251297, 0.01292432565242052, 0.013969974592328072, 0.015015623532235622, 0.016061272472143173, 0.01710692048072815, 0.018152570351958275, 0.0191982202231884, 0.020243868231773376, 0.021289516240358353, 0.022335166111588478, 0.023380815982818604, 0.02442646399140358, 0.025472111999988556, 0.02651776187121868, 0.027563411742448807, 0.028609059751033783, 0.02965470775961876, 0.030700357630848885, 0.03174600750207901, 0.032791655510663986, 0.03383730351924896, 0.03488295525312424, 0.03592860326170921, 0.03697425127029419, 0.038019899278879166, 0.03906554728746414, 0.040111199021339417, 0.04115684702992439, 0.04220249503850937, 0.043248146772384644, 0.04429379478096962, 0.045339442789554596]}, "parameters/decoder.lstm_loop.weight_ih_l0": {"_type": "histogram", "values": [1.0, 3.0, 9.0, 8.0, 14.0, 16.0, 39.0, 47.0, 54.0, 62.0, 72.0, 69.0, 78.0, 87.0, 91.0, 79.0, 86.0, 72.0, 70.0, 83.0, 93.0, 80.0, 77.0, 78.0, 70.0, 91.0, 73.0, 87.0, 78.0, 82.0, 71.0, 77.0, 88.0, 83.0, 80.0, 89.0, 84.0, 76.0, 78.0, 66.0, 79.0, 66.0, 90.0, 79.0, 80.0, 84.0, 73.0, 91.0, 73.0, 91.0, 103.0, 74.0, 59.0, 81.0, 81.0, 73.0, 56.0, 29.0, 44.0, 21.0, 17.0, 8.0, 2.0, 1.0], "bins": [-0.2158794105052948, -0.20890183746814728, -0.20192426443099976, -0.19494667649269104, -0.18796910345554352, -0.180991530418396, -0.17401395738124847, -0.16703638434410095, -0.16005879640579224, -0.15308122336864471, -0.1461036503314972, -0.13912606239318848, -0.13214848935604095, -0.12517091631889343, -0.11819334328174591, -0.11121577024459839, -0.10423819720745087, -0.09726062417030334, -0.09028304368257523, -0.0833054706454277, -0.07632789015769958, -0.06935031712055206, -0.06237274408340454, -0.05539516732096672, -0.0484175905585289, -0.04144001379609108, -0.03446243703365326, -0.027484863996505737, -0.020507287234067917, -0.013529710471630096, -0.0065521374344825745, 0.00042543932795524597, 0.0074030011892318726, 0.014380577020347118, 0.021358152851462364, 0.028335727751255035, 0.035313304513692856, 0.042290881276130676, 0.0492684543132782, 0.05624603107571602, 0.06322360783815384, 0.07020118087530136, 0.07717876136302948, 0.084156334400177, 0.09113390743732452, 0.09811148792505264, 0.10508906096220016, 0.11206664144992828, 0.1190442144870758, 0.12602178752422333, 0.13299936056137085, 0.13997694849967957, 0.1469545215368271, 0.1539320945739746, 0.16090966761112213, 0.16788724064826965, 0.17486482858657837, 0.1818424016237259, 0.1888199746608734, 0.19579756259918213, 0.20277513563632965, 0.20975270867347717, 0.2167302817106247, 0.22370785474777222, 0.23068542778491974]}, "parameters/decoder.lstm_loop.weight_hh_l0": {"_type": "histogram", "values": [4.0, 5.0, 10.0, 15.0, 35.0, 40.0, 58.0, 65.0, 83.0, 72.0, 81.0, 74.0, 78.0, 72.0, 73.0, 81.0, 59.0, 67.0, 86.0, 64.0, 64.0, 71.0, 77.0, 85.0, 70.0, 69.0, 83.0, 76.0, 71.0, 66.0, 64.0, 69.0, 82.0, 89.0, 69.0, 69.0, 70.0, 69.0, 76.0, 74.0, 82.0, 80.0, 69.0, 70.0, 82.0, 81.0, 79.0, 77.0, 80.0, 73.0, 69.0, 58.0, 71.0, 65.0, 95.0, 75.0, 81.0, 63.0, 57.0, 41.0, 33.0, 17.0, 9.0, 4.0], "bins": [-0.2126019150018692, -0.20612764358520508, -0.19965335726737976, -0.19317908585071564, -0.1867048144340515, -0.1802305281162262, -0.17375625669956207, -0.16728198528289795, -0.16080769896507263, -0.1543334275484085, -0.1478591412305832, -0.14138486981391907, -0.13491059839725494, -0.12843632698059082, -0.1219620406627655, -0.11548776924610138, -0.10901349782943726, -0.10253921896219254, -0.09606494754552841, -0.08959066867828369, -0.08311639726161957, -0.07664211839437485, -0.07016783952713013, -0.063693568110466, -0.05721928924322128, -0.05074501410126686, -0.04427073895931244, -0.03779646009206772, -0.031322184950113297, -0.024847909808158875, -0.018373630940914154, -0.011899355798959732, -0.00542508065700531, 0.0010491954162716866, 0.007523471489548683, 0.013997748494148254, 0.020472023636102676, 0.0269462987780571, 0.03342057764530182, 0.03989485278725624, 0.04636912792921066, 0.052843403071165085, 0.05931767821311951, 0.06579195708036423, 0.07226623594760895, 0.07874050736427307, 0.08521478623151779, 0.09168906509876251, 0.09816333651542664, 0.10463761538267136, 0.11111188679933548, 0.1175861656665802, 0.12406043708324432, 0.13053470849990845, 0.13700899481773376, 0.1434832662343979, 0.149957537651062, 0.15643180906772614, 0.16290609538555145, 0.16938036680221558, 0.1758546382188797, 0.18232890963554382, 0.18880319595336914, 0.19527746737003326, 0.20175175368785858]}, "parameters/decoder.lstm_loop.bias_ih_l0": {"_type": "histogram", "values": [1.0, 0.0, 0.0, 0.0, 0.0, 1.0, 1.0, 1.0, 4.0, 5.0, 3.0, 2.0, 3.0, 3.0, 5.0, 0.0, 1.0, 3.0, 2.0, 3.0, 2.0, 2.0, 2.0, 3.0, 0.0, 0.0, 4.0, 2.0, 3.0, 3.0, 1.0, 2.0, 0.0, 3.0, 2.0, 2.0, 4.0, 3.0, 1.0, 2.0, 4.0, 2.0, 2.0, 0.0, 2.0, 1.0, 1.0, 3.0, 4.0, 3.0, 2.0, 4.0, 2.0, 4.0, 0.0, 2.0, 5.0, 2.0, 5.0, 0.0, 0.0, 0.0, 0.0, 1.0], "bins": [-0.19681769609451294, -0.19060982763767242, -0.18440194427967072, -0.1781940758228302, -0.1719861924648285, -0.16577832400798798, -0.15957045555114746, -0.15336257219314575, -0.14715470373630524, -0.14094683527946472, -0.134738951921463, -0.1285310834646225, -0.12232320755720139, -0.11611533164978027, -0.10990746319293976, -0.10369958728551865, -0.09749171137809753, -0.09128383547067642, -0.08507595956325531, -0.0788680911064148, -0.07266021519899368, -0.06645233929157257, -0.06024446710944176, -0.054036594927310944, -0.04782871901988983, -0.04162084311246872, -0.035412970930337906, -0.029205096885561943, -0.02299722284078598, -0.016789348796010017, -0.010581474751234055, -0.004373602569103241, 0.001834288239479065, 0.008042162284255028, 0.01425003632903099, 0.020457910373806953, 0.026665784418582916, 0.03287366032600403, 0.03908153250813484, 0.045289404690265656, 0.05149728059768677, 0.05770515650510788, 0.06391303241252899, 0.0701209008693695, 0.07632877677679062, 0.08253665268421173, 0.08874452114105225, 0.09495239704847336, 0.10116027295589447, 0.10736814886331558, 0.1135760247707367, 0.11978389322757721, 0.12599176168441772, 0.13219964504241943, 0.13840751349925995, 0.14461538195610046, 0.15082326531410217, 0.1570311337709427, 0.1632390171289444, 0.1694468855857849, 0.17565476894378662, 0.18186263740062714, 0.18807050585746765, 0.19427838921546936, 0.20048625767230988]}, "parameters/decoder.lstm_loop.bias_hh_l0": {"_type": "histogram", "values": [1.0, 0.0, 0.0, 0.0, 0.0, 0.0, 3.0, 2.0, 2.0, 0.0, 0.0, 3.0, 2.0, 3.0, 3.0, 1.0, 4.0, 4.0, 1.0, 3.0, 5.0, 2.0, 2.0, 2.0, 1.0, 2.0, 2.0, 2.0, 0.0, 0.0, 2.0, 0.0, 3.0, 1.0, 0.0, 2.0, 1.0, 2.0, 2.0, 2.0, 4.0, 4.0, 2.0, 5.0, 0.0, 2.0, 2.0, 3.0, 3.0, 4.0, 4.0, 3.0, 4.0, 1.0, 3.0, 0.0, 4.0, 1.0, 6.0, 1.0, 2.0, 2.0, 1.0, 2.0], "bins": [-0.21161264181137085, -0.20549243688583374, -0.19937224686145782, -0.19325204193592072, -0.1871318519115448, -0.1810116469860077, -0.17489144206047058, -0.16877123713493347, -0.16265104711055756, -0.15653084218502045, -0.15041065216064453, -0.14429044723510742, -0.1381702423095703, -0.1320500522851944, -0.1259298473596573, -0.11980964988470078, -0.11368945240974426, -0.10756925493478775, -0.10144905745983124, -0.09532885253429413, -0.08920865505933762, -0.0830884575843811, -0.076968252658844, -0.07084805518388748, -0.06472785770893097, -0.05860766023397446, -0.052487459033727646, -0.046367257833480835, -0.04024706035852432, -0.03412686288356781, -0.028006661683321, -0.021886460483074188, -0.015766263008117676, -0.009646063670516014, -0.0035258643329143524, 0.0025943350046873093, 0.008714534342288971, 0.014834733679890633, 0.020954933017492294, 0.027075134217739105, 0.03319533169269562, 0.03931552916765213, 0.04543573036789894, 0.05155593156814575, 0.057676129043102264, 0.06379632651805878, 0.06991653144359589, 0.0760367289185524, 0.08215692639350891, 0.08827712386846542, 0.09439732134342194, 0.10051752626895905, 0.10663772374391556, 0.11275792121887207, 0.11887812614440918, 0.12499832361936569, 0.1311185210943222, 0.13723872601985931, 0.14335891604423523, 0.14947912096977234, 0.15559932589530945, 0.16171951591968536, 0.16783972084522247, 0.1739599108695984, 0.1800801157951355]}, "parameters/decoder.lstm2.weight_ih_l0": {"_type": "histogram", "values": [1.0, 1.0, 2.0, 4.0, 9.0, 7.0, 12.0, 25.0, 25.0, 33.0, 43.0, 63.0, 93.0, 165.0, 229.0, 289.0, 327.0, 350.0, 437.0, 484.0, 515.0, 547.0, 543.0, 601.0, 622.0, 583.0, 565.0, 583.0, 547.0, 621.0, 556.0, 579.0, 620.0, 562.0, 581.0, 603.0, 620.0, 572.0, 568.0, 590.0, 563.0, 592.0, 566.0, 534.0, 518.0, 563.0, 540.0, 456.0, 401.0, 327.0, 272.0, 246.0, 188.0, 154.0, 95.0, 57.0, 29.0, 33.0, 17.0, 11.0, 4.0, 0.0, 5.0, 4.0], "bins": [-0.15420427918434143, -0.14966754615306854, -0.14513081312179565, -0.14059408009052277, -0.13605734705924988, -0.131520614027977, -0.1269838809967041, -0.12244714051485062, -0.11791040748357773, -0.11337367445230484, -0.10883694142103195, -0.10430020838975906, -0.09976346790790558, -0.09522673487663269, -0.0906900018453598, -0.08615326881408691, -0.08161653578281403, -0.07707980275154114, -0.07254306972026825, -0.06800633668899536, -0.06346960365772247, -0.058932866901159286, -0.0543961301445961, -0.04985939711332321, -0.045322664082050323, -0.040785931050777435, -0.03624919801950455, -0.03171246126294136, -0.027175728231668472, -0.022638995200395584, -0.018102260306477547, -0.01356552541255951, -0.009028792381286621, -0.004492058418691158, 4.4675543904304504e-05, 0.004581409506499767, 0.00911814346909523, 0.013654876500368118, 0.018191611394286156, 0.022728346288204193, 0.02726507931947708, 0.03180181235074997, 0.03633854538202286, 0.040875282138586044, 0.04541201516985893, 0.04994874820113182, 0.05448548495769501, 0.059022217988967896, 0.06355895102024078, 0.06809568405151367, 0.07263241708278656, 0.07716915011405945, 0.08170588314533234, 0.08624261617660522, 0.09077935665845871, 0.0953160896897316, 0.09985282272100449, 0.10438955575227737, 0.10892628878355026, 0.11346302181482315, 0.11799976229667664, 0.12253649532794952, 0.1270732283592224, 0.1316099613904953, 0.1361466944217682]}, "parameters/decoder.lstm2.weight_hh_l0": {"_type": "histogram", "values": [3.0, 2.0, 6.0, 21.0, 42.0, 70.0, 65.0, 104.0, 189.0, 285.0, 475.0, 833.0, 1088.0, 1480.0, 1990.0, 2303.0, 2479.0, 2668.0, 2665.0, 2712.0, 2790.0, 2789.0, 2764.0, 2813.0, 2784.0, 2764.0, 2801.0, 2751.0, 2755.0, 2747.0, 2818.0, 2708.0, 2680.0, 2781.0, 2768.0, 2793.0, 2862.0, 2682.0, 2857.0, 2807.0, 2774.0, 2691.0, 2721.0, 2651.0, 2601.0, 2521.0, 2399.0, 2139.0, 1815.0, 1393.0, 998.0, 606.0, 301.0, 176.0, 134.0, 91.0, 61.0, 27.0, 19.0, 7.0, 1.0, 2.0, 0.0, 2.0], "bins": [-0.1376621425151825, -0.13329946994781494, -0.1289367973804474, -0.12457411736249924, -0.12021144479513168, -0.11584876477718353, -0.11148609220981598, -0.10712341964244843, -0.10276074707508087, -0.09839807450771332, -0.09403539448976517, -0.08967272192239761, -0.08531004935503006, -0.08094736933708191, -0.07658469676971436, -0.0722220242023468, -0.06785934418439865, -0.0634966716170311, -0.059133995324373245, -0.05477131903171539, -0.05040864646434784, -0.04604597017168999, -0.041683293879032135, -0.03732062131166458, -0.03295794501900673, -0.028595270588994026, -0.024232596158981323, -0.01986991986632347, -0.015507245436310768, -0.011144571006298065, -0.006781894713640213, -0.00241922028362751, 0.0019434541463851929, 0.006306129042059183, 0.010668803937733173, 0.015031479299068451, 0.019394153729081154, 0.023756828159093857, 0.02811950445175171, 0.03248217701911926, 0.036844853311777115, 0.04120752960443497, 0.04557020217180252, 0.04993287846446037, 0.054295554757118225, 0.05865822732448578, 0.06302089989185333, 0.06738357990980148, 0.07174625247716904, 0.07610892504453659, 0.08047160506248474, 0.0848342776298523, 0.08919695019721985, 0.0935596227645874, 0.09792230278253555, 0.1022849753499031, 0.10664765536785126, 0.11101032793521881, 0.11537300795316696, 0.11973568052053452, 0.12409835308790207, 0.12846103310585022, 0.13282370567321777, 0.13718637824058533, 0.14154905080795288]}, "parameters/decoder.lstm2.bias_ih_l0": {"_type": "histogram", "values": [1.0, 0.0, 2.0, 5.0, 2.0, 6.0, 7.0, 7.0, 6.0, 9.0, 11.0, 11.0, 12.0, 11.0, 9.0, 12.0, 21.0, 8.0, 20.0, 13.0, 22.0, 13.0, 9.0, 10.0, 14.0, 14.0, 22.0, 13.0, 17.0, 8.0, 14.0, 14.0, 13.0, 20.0, 10.0, 16.0, 11.0, 9.0, 10.0, 11.0, 12.0, 10.0, 18.0, 16.0, 7.0, 14.0, 11.0, 13.0, 16.0, 12.0, 14.0, 11.0, 10.0, 10.0, 2.0, 4.0, 3.0, 3.0, 3.0, 0.0, 1.0, 1.0, 1.0, 1.0], "bins": [-0.09320269525051117, -0.08981635421514511, -0.08643002063035965, -0.08304367959499359, -0.07965733855962753, -0.07627100497484207, -0.07288466393947601, -0.06949833035469055, -0.0661119893193245, -0.06272564828395844, -0.059339310973882675, -0.055952973663806915, -0.052566636353731155, -0.049180299043655396, -0.04579395800828934, -0.04240762069821358, -0.03902127966284752, -0.03563494235277176, -0.0322486013174057, -0.02886226400732994, -0.02547592669725418, -0.022089587524533272, -0.018703248351812363, -0.015316911041736603, -0.011930571869015694, -0.00854423362761736, -0.005157894920557737, -0.0017715562134981155, 0.001614782027900219, 0.0050011202692985535, 0.008387459442019463, 0.011773796752095222, 0.015160135924816132, 0.01854647509753704, 0.0219328124076128, 0.02531915158033371, 0.02870548889040947, 0.03209182620048523, 0.03547816723585129, 0.03886450454592705, 0.04225084185600281, 0.04563717916607857, 0.049023520201444626, 0.052409857511520386, 0.055796194821596146, 0.059182532131671906, 0.06256887316703796, 0.06595520675182343, 0.06934155523777008, 0.07272789627313614, 0.0761142298579216, 0.07950057089328766, 0.08288691192865372, 0.08627324551343918, 0.08965958654880524, 0.0930459201335907, 0.09643226116895676, 0.09981860220432281, 0.10320493578910828, 0.10659127682447433, 0.1099776178598404, 0.11336395144462585, 0.11675029247999191, 0.12013663351535797, 0.12352296710014343]}, "parameters/decoder.lstm2.bias_hh_l0": {"_type": "histogram", "values": [6.0, 7.0, 3.0, 8.0, 9.0, 11.0, 17.0, 9.0, 18.0, 11.0, 13.0, 8.0, 7.0, 6.0, 11.0, 12.0, 12.0, 11.0, 10.0, 13.0, 12.0, 16.0, 8.0, 15.0, 9.0, 11.0, 11.0, 13.0, 15.0, 23.0, 15.0, 19.0, 12.0, 10.0, 12.0, 12.0, 8.0, 6.0, 17.0, 12.0, 8.0, 10.0, 10.0, 16.0, 15.0, 17.0, 15.0, 6.0, 18.0, 12.0, 5.0, 13.0, 9.0, 4.0, 3.0, 2.0, 4.0, 2.0, 2.0, 1.0, 2.0, 0.0, 3.0, 1.0], "bins": [-0.08152709156274796, -0.07833521068096161, -0.07514332979917526, -0.07195144891738892, -0.06875956058502197, -0.06556767970323563, -0.06237579882144928, -0.05918391793966293, -0.05599203333258629, -0.05280015245079994, -0.0496082678437233, -0.04641638696193695, -0.043224506080150604, -0.04003262147307396, -0.03684074059128761, -0.03364885598421097, -0.03045697510242462, -0.027265092357993126, -0.02407320961356163, -0.020881328731775284, -0.017689445987343788, -0.014497563242912292, -0.011305682361125946, -0.00811379961669445, -0.004921916872262955, -0.0017300345934927464, 0.001461847685277462, 0.004653729498386383, 0.007845612242817879, 0.011037494987249374, 0.01422937586903572, 0.017421258613467216, 0.020613133907318115, 0.02380501665174961, 0.026996899396181107, 0.030188780277967453, 0.0333806648850441, 0.036572545766830444, 0.03976442664861679, 0.04295630753040314, 0.04614819213747978, 0.04934007301926613, 0.05253195762634277, 0.05572383850812912, 0.058915719389915466, 0.06210760399699211, 0.06529948115348816, 0.0684913694858551, 0.07168325036764145, 0.0748751312494278, 0.07806701213121414, 0.08125889301300049, 0.08445078134536743, 0.08764266222715378, 0.09083454310894012, 0.09402642399072647, 0.09721830487251282, 0.10041018575429916, 0.10360206663608551, 0.10679395496845245, 0.1099858358502388, 0.11317771673202515, 0.11636959761381149, 0.11956147849559784, 0.12275336682796478]}, "gradients/decoder.lstm2.weight_ih_l0": {"_type": "histogram", "values": [4.0, 1.0, 3.0, 3.0, 8.0, 8.0, 6.0, 10.0, 9.0, 10.0, 12.0, 17.0, 27.0, 26.0, 31.0, 35.0, 46.0, 60.0, 65.0, 69.0, 106.0, 110.0, 136.0, 177.0, 233.0, 345.0, 453.0, 575.0, 755.0, 998.0, 2026.0, 11364.0, 714.0, 376.0, 302.0, 217.0, 176.0, 145.0, 132.0, 89.0, 87.0, 65.0, 55.0, 32.0, 38.0, 27.0, 24.0, 24.0, 20.0, 15.0, 16.0, 11.0, 11.0, 9.0, 5.0, 3.0, 5.0, 6.0, 4.0, 6.0, 4.0, 3.0, 0.0, 3.0], "bins": [-143.3200225830078, -138.7344512939453, -134.14889526367188, -129.56332397460938, -124.97776794433594, -120.39219665527344, -115.80663299560547, -111.2210693359375, -106.63550567626953, -102.04994201660156, -97.4643783569336, -92.87881469726562, -88.29324340820312, -83.70768737792969, -79.12211608886719, -74.53655242919922, -69.95098876953125, -65.36542510986328, -60.77986145019531, -56.19429397583008, -51.60873031616211, -47.02316665649414, -42.437599182128906, -37.85203552246094, -33.26647186279297, -28.680908203125, -24.0953426361084, -19.509777069091797, -14.924213409423828, -10.33864974975586, -5.753084182739258, -1.1675186157226562, 3.41802978515625, 8.003594398498535, 12.58915901184082, 17.174724578857422, 21.76028823852539, 26.34585189819336, 30.93141746520996, 35.51698303222656, 40.10254669189453, 44.6881103515625, 49.27367401123047, 53.8592414855957, 58.44480514526367, 63.03036880493164, 67.61593627929688, 72.20149993896484, 76.78706359863281, 81.37262725830078, 85.95819091796875, 90.54375457763672, 95.12931823730469, 99.71488952636719, 104.30045318603516, 108.88601684570312, 113.4715805053711, 118.05714416503906, 122.64270782470703, 127.228271484375, 131.8138427734375, 136.39939880371094, 140.98497009277344, 145.57052612304688, 150.15609741210938]}, "gradients/decoder.lstm2.weight_hh_l0": {"_type": "histogram", "values": [2.0, 1.0, 0.0, 2.0, 2.0, 1.0, 1.0, 1.0, 6.0, 4.0, 7.0, 14.0, 14.0, 14.0, 14.0, 11.0, 32.0, 34.0, 49.0, 57.0, 56.0, 69.0, 117.0, 153.0, 130.0, 172.0, 250.0, 578.0, 1523.0, 5310.0, 69865.0, 10545.0, 3093.0, 1775.0, 1501.0, 1209.0, 908.0, 625.0, 502.0, 418.0, 359.0, 293.0, 253.0, 219.0, 166.0, 152.0, 109.0, 107.0, 87.0, 75.0, 59.0, 41.0, 29.0, 26.0, 19.0, 11.0, 14.0, 14.0, 6.0, 5.0, 6.0, 5.0, 2.0, 2.0], "bins": [-94.00594329833984, -90.94682312011719, -87.88770294189453, -84.82858276367188, -81.76946258544922, -78.71034240722656, -75.6512222290039, -72.59210205078125, -69.5329818725586, -66.47386169433594, -63.41474151611328, -60.355621337890625, -57.29650115966797, -54.23738098144531, -51.178260803222656, -48.119140625, -45.060020446777344, -42.00090026855469, -38.94178009033203, -35.882659912109375, -32.82353973388672, -29.764419555664062, -26.705299377441406, -23.64617919921875, -20.587059020996094, -17.527938842773438, -14.468818664550781, -11.409698486328125, -8.350578308105469, -5.2914581298828125, -2.2323379516601562, 0.8267822265625, 3.8859024047851562, 6.9450225830078125, 10.004142761230469, 13.063262939453125, 16.12238311767578, 19.181503295898438, 22.240623474121094, 25.29974365234375, 28.358863830566406, 31.417984008789062, 34.47710418701172, 37.536224365234375, 40.59534454345703, 43.65446472167969, 46.713584899902344, 49.772705078125, 52.831825256347656, 55.89094543457031, 58.95006561279297, 62.009185791015625, 65.06830596923828, 68.12742614746094, 71.1865463256836, 74.24566650390625, 77.3047866821289, 80.36390686035156, 83.42302703857422, 86.48214721679688, 89.54126739501953, 92.60038757324219, 95.65950775146484, 98.7186279296875, 101.77774810791016]}, "gradients/decoder.lstm2.bias_hh_l0": {"_type": "histogram", "values": [1.0, 0.0, 0.0, 0.0, 0.0, 1.0, 2.0, 0.0, 0.0, 0.0, 0.0, 2.0, 0.0, 1.0, 2.0, 0.0, 2.0, 5.0, 4.0, 3.0, 0.0, 3.0, 1.0, 0.0, 1.0, 1.0, 4.0, 5.0, 8.0, 47.0, 281.0, 40.0, 11.0, 14.0, 25.0, 28.0, 26.0, 16.0, 13.0, 7.0, 11.0, 7.0, 5.0, 3.0, 4.0, 5.0, 6.0, 4.0, 4.0, 6.0, 5.0, 1.0, 2.0, 3.0, 5.0, 2.0, 0.0, 1.0, 0.0, 1.0, 2.0, 1.0, 3.0, 1.0], "bins": [-265.2032470703125, -256.4786682128906, -247.7541046142578, -239.029541015625, -230.30496215820312, -221.5803985595703, -212.8558349609375, -204.13125610351562, -195.40667724609375, -186.68211364746094, -177.95753479003906, -169.23297119140625, -160.50839233398438, -151.78382873535156, -143.05926513671875, -134.33468627929688, -125.61012268066406, -116.88555145263672, -108.16098022460938, -99.43641662597656, -90.71183776855469, -81.98727416992188, -73.26270294189453, -64.53813171386719, -55.813560485839844, -47.0889892578125, -38.364418029785156, -29.639850616455078, -20.915279388427734, -12.19070816040039, -3.4661407470703125, 5.258430480957031, 13.983001708984375, 22.70757293701172, 31.43214225769043, 40.15671157836914, 48.881282806396484, 57.60585403442383, 66.3304214477539, 75.05499267578125, 83.7795639038086, 92.50413513183594, 101.22870635986328, 109.95327758789062, 118.67784118652344, 127.40242004394531, 136.12698364257812, 144.8515625, 153.5761260986328, 162.30068969726562, 171.0252685546875, 179.7498321533203, 188.4744110107422, 197.198974609375, 205.92355346679688, 214.6481170654297, 223.3726806640625, 232.0972442626953, 240.8218231201172, 249.54638671875, 258.2709655761719, 266.99554443359375, 275.7200927734375, 284.4446716308594, 293.16925048828125]}, "gradients/decoder.lstm2.bias_ih_l0": {"_type": "histogram", "values": [1.0, 0.0, 0.0, 0.0, 0.0, 1.0, 2.0, 0.0, 0.0, 0.0, 0.0, 2.0, 0.0, 1.0, 2.0, 0.0, 2.0, 5.0, 4.0, 3.0, 0.0, 3.0, 1.0, 0.0, 1.0, 1.0, 4.0, 5.0, 8.0, 47.0, 281.0, 40.0, 11.0, 14.0, 25.0, 28.0, 26.0, 16.0, 13.0, 7.0, 11.0, 7.0, 5.0, 3.0, 4.0, 5.0, 6.0, 4.0, 4.0, 6.0, 5.0, 1.0, 2.0, 3.0, 5.0, 2.0, 0.0, 1.0, 0.0, 1.0, 2.0, 1.0, 3.0, 1.0], "bins": [-265.2032470703125, -256.4786682128906, -247.7541046142578, -239.029541015625, -230.30496215820312, -221.5803985595703, -212.8558349609375, -204.13125610351562, -195.40667724609375, -186.68211364746094, -177.95753479003906, -169.23297119140625, -160.50839233398438, -151.78382873535156, -143.05926513671875, -134.33468627929688, -125.61012268066406, -116.88555145263672, -108.16098022460938, -99.43641662597656, -90.71183776855469, -81.98727416992188, -73.26270294189453, -64.53813171386719, -55.813560485839844, -47.0889892578125, -38.364418029785156, -29.639850616455078, -20.915279388427734, -12.19070816040039, -3.4661407470703125, 5.258430480957031, 13.983001708984375, 22.70757293701172, 31.43214225769043, 40.15671157836914, 48.881282806396484, 57.60585403442383, 66.3304214477539, 75.05499267578125, 83.7795639038086, 92.50413513183594, 101.22870635986328, 109.95327758789062, 118.67784118652344, 127.40242004394531, 136.12698364257812, 144.8515625, 153.5761260986328, 162.30068969726562, 171.0252685546875, 179.7498321533203, 188.4744110107422, 197.198974609375, 205.92355346679688, 214.6481170654297, 223.3726806640625, 232.0972442626953, 240.8218231201172, 249.54638671875, 258.2709655761719, 266.99554443359375, 275.7200927734375, 284.4446716308594, 293.16925048828125]}, "gradients/decoder.lstm_loop.weight_ih_l0": {"_type": "histogram", "values": [2.0, 0.0, 0.0, 1.0, 0.0, 1.0, 1.0, 0.0, 1.0, 1.0, 0.0, 3.0, 1.0, 3.0, 4.0, 9.0, 6.0, 7.0, 10.0, 10.0, 8.0, 17.0, 17.0, 22.0, 26.0, 21.0, 15.0, 40.0, 45.0, 43.0, 63.0, 60.0, 77.0, 145.0, 1305.0, 1014.0, 488.0, 256.0, 128.0, 82.0, 48.0, 23.0, 19.0, 18.0, 9.0, 6.0, 8.0, 3.0, 3.0, 6.0, 5.0, 4.0, 4.0, 2.0, 1.0, 1.0, 0.0, 0.0, 1.0, 0.0, 1.0, 0.0, 1.0, 1.0], "bins": [-278.7828063964844, -270.71185302734375, -262.64093017578125, -254.5699920654297, -246.49905395507812, -238.42811584472656, -230.357177734375, -222.28623962402344, -214.21530151367188, -206.1443634033203, -198.07342529296875, -190.0024871826172, -181.93154907226562, -173.86061096191406, -165.7896728515625, -157.71873474121094, -149.64779663085938, -141.5768585205078, -133.50592041015625, -125.43498229980469, -117.36404418945312, -109.29310607910156, -101.22216796875, -93.15122985839844, -85.08029174804688, -77.00935363769531, -68.93841552734375, -60.86747741699219, -52.796539306640625, -44.72560119628906, -36.6546630859375, -28.583724975585938, -20.512771606445312, -12.44183349609375, -4.3708953857421875, 3.700042724609375, 11.770980834960938, 19.8419189453125, 27.912857055664062, 35.983795166015625, 44.05473327636719, 52.12567138671875, 60.19660949707031, 68.26754760742188, 76.33848571777344, 84.409423828125, 92.48036193847656, 100.55130004882812, 108.62223815917969, 116.69317626953125, 124.76411437988281, 132.83505249023438, 140.90599060058594, 148.9769287109375, 157.04786682128906, 165.11880493164062, 173.1897430419922, 181.26068115234375, 189.3316192626953, 197.40255737304688, 205.47349548339844, 213.54443359375, 221.61537170410156, 229.68630981445312, 237.7572479248047]}, "gradients/decoder.lstm_loop.weight_hh_l0": {"_type": "histogram", "values": [1.0, 1.0, 1.0, 1.0, 2.0, 6.0, 0.0, 1.0, 2.0, 4.0, 1.0, 1.0, 1.0, 1.0, 7.0, 4.0, 7.0, 8.0, 7.0, 9.0, 9.0, 18.0, 4.0, 23.0, 39.0, 37.0, 43.0, 62.0, 112.0, 169.0, 316.0, 575.0, 1208.0, 554.0, 193.0, 157.0, 102.0, 83.0, 47.0, 41.0, 51.0, 33.0, 22.0, 19.0, 8.0, 18.0, 16.0, 9.0, 8.0, 8.0, 7.0, 4.0, 5.0, 7.0, 4.0, 2.0, 3.0, 3.0, 3.0, 4.0, 1.0, 1.0, 2.0, 1.0], "bins": [-98.6894302368164, -95.68860626220703, -92.68778991699219, -89.68696594238281, -86.68614196777344, -83.68531799316406, -80.68450164794922, -77.68367767333984, -74.68285369873047, -71.6820297241211, -68.68121337890625, -65.68038940429688, -62.6795654296875, -59.67874526977539, -56.67792510986328, -53.677101135253906, -50.6762809753418, -47.67546081542969, -44.67463684082031, -41.6738166809082, -38.67299270629883, -35.67217254638672, -32.671348571777344, -29.670528411865234, -26.669706344604492, -23.66888427734375, -20.668062210083008, -17.667240142822266, -14.66641902923584, -11.665596961975098, -8.664775848388672, -5.66395378112793, -2.6631317138671875, 0.3376901149749756, 3.3385119438171387, 6.339333534240723, 9.340155601501465, 12.340977668762207, 15.341798782348633, 18.342620849609375, 21.343442916870117, 24.34426498413086, 27.3450870513916, 30.345909118652344, 33.34672927856445, 36.34755325317383, 39.34837341308594, 42.34919738769531, 45.35001754760742, 48.35083770751953, 51.351661682128906, 54.352481842041016, 57.35330581665039, 60.3541259765625, 63.354949951171875, 66.35577392578125, 69.3565902709961, 72.35741424560547, 75.35823059082031, 78.35905456542969, 81.35987854003906, 84.36070251464844, 87.36151885986328, 90.36234283447266, 93.36316680908203]}, "gradients/decoder.lstm_loop.bias_hh_l0": {"_type": "histogram", "values": [1.0, 0.0, 1.0, 0.0, 1.0, 1.0, 0.0, 0.0, 0.0, 2.0, 0.0, 0.0, 0.0, 0.0, 1.0, 1.0, 2.0, 0.0, 1.0, 0.0, 0.0, 0.0, 0.0, 2.0, 1.0, 1.0, 3.0, 0.0, 0.0, 0.0, 1.0, 0.0, 1.0, 2.0, 19.0, 9.0, 13.0, 19.0, 10.0, 13.0, 4.0, 4.0, 7.0, 1.0, 1.0, 0.0, 0.0, 0.0, 0.0, 0.0, 2.0, 1.0, 0.0, 0.0, 0.0, 0.0, 0.0, 0.0, 0.0, 1.0, 0.0, 1.0, 0.0, 1.0], "bins": [-243.18626403808594, -236.1765899658203, -229.1669158935547, -222.15724182128906, -215.14755249023438, -208.13787841796875, -201.12820434570312, -194.1185302734375, -187.10885620117188, -180.09918212890625, -173.08950805664062, -166.079833984375, -159.07015991210938, -152.06048583984375, -145.05079650878906, -138.04112243652344, -131.0314483642578, -124.02177429199219, -117.01210021972656, -110.0024185180664, -102.99274444580078, -95.98307037353516, -88.973388671875, -81.96371459960938, -74.95404052734375, -67.94436645507812, -60.934688568115234, -53.925010681152344, -46.91533660888672, -39.905662536621094, -32.8959846496582, -25.886306762695312, -18.87664794921875, -11.866971969604492, -4.857295989990234, 2.1523799896240234, 9.162055969238281, 16.171730041503906, 23.181407928466797, 30.191085815429688, 37.20075988769531, 44.21043395996094, 51.22011184692383, 58.22978973388672, 65.23946380615234, 72.24913787841797, 79.25881958007812, 86.26849365234375, 93.27816772460938, 100.287841796875, 107.29751586914062, 114.30719757080078, 121.3168716430664, 128.3265380859375, 135.3362274169922, 142.3459014892578, 149.35557556152344, 156.36524963378906, 163.3749237060547, 170.3845977783203, 177.394287109375, 184.40396118164062, 191.41363525390625, 198.42330932617188, 205.4329833984375]}, "gradients/decoder.lstm_loop.bias_ih_l0": {"_type": "histogram", "values": [1.0, 0.0, 1.0, 0.0, 1.0, 1.0, 0.0, 0.0, 0.0, 2.0, 0.0, 0.0, 0.0, 0.0, 1.0, 1.0, 2.0, 0.0, 1.0, 0.0, 0.0, 0.0, 0.0, 2.0, 1.0, 1.0, 3.0, 0.0, 0.0, 0.0, 1.0, 0.0, 1.0, 2.0, 19.0, 9.0, 13.0, 19.0, 10.0, 13.0, 4.0, 4.0, 7.0, 1.0, 1.0, 0.0, 0.0, 0.0, 0.0, 0.0, 2.0, 1.0, 0.0, 0.0, 0.0, 0.0, 0.0, 0.0, 0.0, 1.0, 0.0, 1.0, 0.0, 1.0], "bins": [-243.18626403808594, -236.1765899658203, -229.1669158935547, -222.15724182128906, -215.14755249023438, -208.13787841796875, -201.12820434570312, -194.1185302734375, -187.10885620117188, -180.09918212890625, -173.08950805664062, -166.079833984375, -159.07015991210938, -152.06048583984375, -145.05079650878906, -138.04112243652344, -131.0314483642578, -124.02177429199219, -117.01210021972656, -110.0024185180664, -102.99274444580078, -95.98307037353516, -88.973388671875, -81.96371459960938, -74.95404052734375, -67.94436645507812, -60.934688568115234, -53.925010681152344, -46.91533660888672, -39.905662536621094, -32.8959846496582, -25.886306762695312, -18.87664794921875, -11.866971969604492, -4.857295989990234, 2.1523799896240234, 9.162055969238281, 16.171730041503906, 23.181407928466797, 30.191085815429688, 37.20075988769531, 44.21043395996094, 51.22011184692383, 58.22978973388672, 65.23946380615234, 72.24913787841797, 79.25881958007812, 86.26849365234375, 93.27816772460938, 100.287841796875, 107.29751586914062, 114.30719757080078, 121.3168716430664, 128.3265380859375, 135.3362274169922, 142.3459014892578, 149.35557556152344, 156.36524963378906, 163.3749237060547, 170.3845977783203, 177.394287109375, 184.40396118164062, 191.41363525390625, 198.42330932617188, 205.4329833984375]}, "gradients/decoder.linear.bias": {"_type": "histogram", "values": [1.0, 0.0, 0.0, 1.0, 0.0, 0.0, 2.0, 0.0, 2.0, 1.0, 1.0, 1.0, 0.0, 1.0, 2.0, 1.0, 0.0, 1.0, 1.0, 1.0, 1.0, 0.0, 1.0, 0.0, 0.0, 0.0, 1.0, 2.0, 0.0, 0.0, 0.0, 0.0, 2.0, 0.0, 1.0, 0.0, 1.0, 0.0, 1.0, 0.0, 0.0, 0.0, 1.0, 0.0, 0.0, 0.0, 0.0, 0.0, 2.0, 0.0, 0.0, 0.0, 0.0, 0.0, 0.0, 1.0, 0.0, 0.0, 0.0, 0.0, 0.0, 0.0, 1.0, 1.0], "bins": [-33.685325622558594, -29.716766357421875, -25.748205184936523, -21.779644012451172, -17.811084747314453, -13.842525482177734, -9.873964309692383, -5.905403137207031, -1.9368438720703125, 2.0317163467407227, 6.000276565551758, 9.968836784362793, 13.937397003173828, 17.905956268310547, 21.8745174407959, 25.84307861328125, 29.81163787841797, 33.78019714355469, 37.748756408691406, 41.71731948852539, 45.68587875366211, 49.65443801879883, 53.62300109863281, 57.59156036376953, 61.56011962890625, 65.52867889404297, 69.49723815917969, 73.4657974243164, 77.43435668945312, 81.40292358398438, 85.3714828491211, 89.34004211425781, 93.30859375, 97.27715301513672, 101.24571228027344, 105.21427154541016, 109.18283081054688, 113.15139770507812, 117.11995697021484, 121.08851623535156, 125.05707550048828, 129.025634765625, 132.99420166015625, 136.96275329589844, 140.9313201904297, 144.89987182617188, 148.86843872070312, 152.83700561523438, 156.80555725097656, 160.7741241455078, 164.74267578125, 168.71124267578125, 172.67979431152344, 176.6483612060547, 180.61691284179688, 184.58547973632812, 188.55404663085938, 192.52261352539062, 196.4911651611328, 200.45973205566406, 204.42828369140625, 208.3968505859375, 212.3654022216797, 216.33396911621094, 220.30252075195312]}, "gradients/decoder.linear.weight": {"_type": "histogram", "values": [1.0, 0.0, 1.0, 1.0, 4.0, 1.0, 3.0, 1.0, 4.0, 0.0, 3.0, 5.0, 5.0, 3.0, 3.0, 6.0, 7.0, 9.0, 4.0, 8.0, 6.0, 9.0, 21.0, 10.0, 21.0, 44.0, 36.0, 46.0, 68.0, 162.0, 157.0, 78.0, 62.0, 39.0, 27.0, 19.0, 29.0, 18.0, 12.0, 12.0, 9.0, 9.0, 12.0, 5.0, 6.0, 2.0, 9.0, 1.0, 2.0, 2.0, 3.0, 1.0, 5.0, 3.0, 1.0, 1.0, 1.0, 2.0, 1.0, 1.0, 1.0, 1.0, 0.0, 1.0], "bins": [-180.72601318359375, -174.71583557128906, -168.70565795898438, -162.69549560546875, -156.68531799316406, -150.67514038085938, -144.66497802734375, -138.65480041503906, -132.64462280273438, -126.63444519042969, -120.62427520751953, -114.61410522460938, -108.60392761230469, -102.59375, -96.58358001708984, -90.57341003417969, -84.563232421875, -78.55305480957031, -72.54288482666016, -66.53271484375, -60.52253723144531, -54.51236343383789, -48.50218963623047, -42.49201583862305, -36.481842041015625, -30.471668243408203, -24.46149444580078, -18.45132064819336, -12.441146850585938, -6.430973052978516, -0.42079925537109375, 5.589374542236328, 11.599533081054688, 17.60970687866211, 23.61988067626953, 29.630054473876953, 35.640228271484375, 41.6504020690918, 47.66057586669922, 53.67074966430664, 59.68092346191406, 65.69110107421875, 71.7012710571289, 77.71144104003906, 83.72161865234375, 89.73179626464844, 95.7419662475586, 101.75213623046875, 107.76231384277344, 113.77249145507812, 119.78266143798828, 125.79283142089844, 131.80300903320312, 137.8131866455078, 143.8233642578125, 149.83352661132812, 155.8437042236328, 161.8538818359375, 167.86404418945312, 173.8742218017578, 179.8843994140625, 185.8945770263672, 191.90475463867188, 197.9149169921875, 203.9250946044922]}, "gradients/encoder.logvar_block.bias": {"_type": "histogram", "values": [1.0, 0.0, 0.0, 0.0, 0.0, 0.0, 1.0, 0.0, 0.0, 0.0, 0.0, 2.0, 1.0, 1.0, 0.0, 2.0, 0.0, 1.0, 1.0, 2.0, 2.0, 2.0, 2.0, 0.0, 0.0, 1.0, 1.0, 0.0, 0.0, 0.0, 0.0, 0.0, 2.0, 1.0, 1.0, 0.0, 0.0, 1.0, 1.0, 0.0, 0.0, 1.0, 0.0, 0.0, 1.0, 0.0, 0.0, 0.0, 0.0, 1.0, 0.0, 0.0, 1.0, 0.0, 0.0, 0.0, 1.0, 0.0, 0.0, 0.0, 0.0, 0.0, 0.0, 1.0], "bins": [-27.342500686645508, -25.53929901123047, -23.73609733581543, -21.93289566040039, -20.12969207763672, -18.32649040222168, -16.52328872680664, -14.720086097717285, -12.916884422302246, -11.113682746887207, -9.310480117797852, -7.5072784423828125, -5.704076290130615, -3.900874137878418, -2.097672462463379, -0.29446983337402344, 1.5087318420410156, 3.311933994293213, 5.11513614654541, 6.918337821960449, 8.721540451049805, 10.524742126464844, 12.327943801879883, 14.131146430969238, 15.934348106384277, 17.737550735473633, 19.540752410888672, 21.34395408630371, 23.14715576171875, 24.950359344482422, 26.753559112548828, 28.5567626953125, 30.359966278076172, 32.163169860839844, 33.96636962890625, 35.76957321166992, 37.57277297973633, 39.3759765625, 41.179176330566406, 42.98237991333008, 44.78558349609375, 46.58878707885742, 48.39198684692383, 50.1951904296875, 51.998390197753906, 53.80159378051758, 55.60479736328125, 57.407997131347656, 59.21119689941406, 61.014400482177734, 62.81760025024414, 64.62080383300781, 66.42400360107422, 68.22720336914062, 70.03041076660156, 71.83361053466797, 73.6368179321289, 75.44001770019531, 77.24322509765625, 79.04642486572266, 80.84962463378906, 82.65283203125, 84.4560317993164, 86.25923156738281, 88.06243133544922]}, "gradients/encoder.logvar_block.weight": {"_type": "histogram", "values": [1.0, 0.0, 1.0, 0.0, 0.0, 0.0, 0.0, 1.0, 2.0, 1.0, 1.0, 2.0, 0.0, 0.0, 3.0, 3.0, 4.0, 2.0, 1.0, 9.0, 5.0, 5.0, 4.0, 14.0, 7.0, 11.0, 15.0, 18.0, 20.0, 30.0, 51.0, 80.0, 124.0, 205.0, 102.0, 69.0, 51.0, 26.0, 25.0, 24.0, 17.0, 7.0, 14.0, 7.0, 13.0, 6.0, 6.0, 9.0, 4.0, 2.0, 1.0, 5.0, 2.0, 3.0, 1.0, 2.0, 1.0, 1.0, 2.0, 1.0, 0.0, 1.0, 1.0, 1.0], "bins": [-21.39653778076172, -20.751306533813477, -20.106075286865234, -19.46084213256836, -18.815610885620117, -18.170379638671875, -17.525146484375, -16.879915237426758, -16.234683990478516, -15.589452743530273, -14.944220542907715, -14.298988342285156, -13.653757095336914, -13.008525848388672, -12.363293647766113, -11.718061447143555, -11.072830200195312, -10.42759895324707, -9.782366752624512, -9.137134552001953, -8.491903305053711, -7.8466715812683105, -7.20143985748291, -6.55620813369751, -5.910976409912109, -5.265744686126709, -4.620512962341309, -3.975281238555908, -3.330049514770508, -2.6848177909851074, -2.039586067199707, -1.3943543434143066, -0.7491245269775391, -0.10389280319213867, 0.5413389205932617, 1.186570644378662, 1.8318023681640625, 2.477034091949463, 3.1222658157348633, 3.7674975395202637, 4.412729263305664, 5.0579609870910645, 5.703192710876465, 6.348424434661865, 6.993656158447266, 7.638887882232666, 8.284119606018066, 8.929351806640625, 9.574583053588867, 10.21981430053711, 10.865046501159668, 11.510278701782227, 12.155509948730469, 12.800741195678711, 13.44597339630127, 14.091205596923828, 14.73643684387207, 15.381668090820312, 16.026901245117188, 16.67213249206543, 17.317363739013672, 17.962594985961914, 18.607826232910156, 19.25305938720703, 19.898290634155273]}, "gradients/encoder.mean_block.bias": {"_type": "histogram", "values": [1.0, 0.0, 0.0, 1.0, 0.0, 0.0, 1.0, 0.0, 0.0, 0.0, 0.0, 0.0, 0.0, 0.0, 0.0, 1.0, 1.0, 0.0, 2.0, 1.0, 0.0, 0.0, 2.0, 1.0, 2.0, 1.0, 0.0, 1.0, 0.0, 1.0, 0.0, 0.0, 1.0, 1.0, 0.0, 0.0, 0.0, 0.0, 0.0, 0.0, 0.0, 2.0, 0.0, 0.0, 1.0, 1.0, 0.0, 1.0, 1.0, 0.0, 1.0, 1.0, 1.0, 0.0, 0.0, 0.0, 1.0, 1.0, 0.0, 0.0, 0.0, 0.0, 0.0, 3.0], "bins": [-233.68905639648438, -226.66123962402344, -219.6334228515625, -212.60562133789062, -205.5778045654297, -198.54998779296875, -191.5221710205078, -184.49435424804688, -177.466552734375, -170.43873596191406, -163.41091918945312, -156.38311767578125, -149.3553009033203, -142.32748413085938, -135.29966735839844, -128.2718505859375, -121.2440414428711, -114.21622467041016, -107.18841552734375, -100.16059875488281, -93.1327896118164, -86.10497283935547, -79.07716369628906, -72.04934692382812, -65.02153015136719, -57.993717193603516, -50.965904235839844, -43.938087463378906, -36.9102783203125, -29.882461547851562, -22.85464859008789, -15.826835632324219, -8.799026489257812, -1.7712130546569824, 5.256600379943848, 12.284414291381836, 19.312227249145508, 26.340042114257812, 33.367855072021484, 40.395668029785156, 47.42348098754883, 54.4512939453125, 61.47910690307617, 68.50691986083984, 75.53473663330078, 82.56254577636719, 89.59036254882812, 96.61817932128906, 103.64598846435547, 110.6738052368164, 117.70161437988281, 124.72943115234375, 131.7572479248047, 138.78506469726562, 145.8128662109375, 152.84068298339844, 159.86849975585938, 166.8963165283203, 173.92413330078125, 180.95193481445312, 187.97975158691406, 195.007568359375, 202.03538513183594, 209.06320190429688, 216.09100341796875]}, "gradients/encoder.mean_block.weight": {"_type": "histogram", "values": [3.0, 1.0, 1.0, 0.0, 2.0, 1.0, 1.0, 4.0, 3.0, 6.0, 0.0, 3.0, 1.0, 5.0, 5.0, 4.0, 11.0, 11.0, 17.0, 7.0, 12.0, 18.0, 21.0, 28.0, 36.0, 28.0, 44.0, 43.0, 54.0, 63.0, 99.0, 75.0, 59.0, 47.0, 38.0, 42.0, 33.0, 31.0, 33.0, 12.0, 14.0, 17.0, 12.0, 14.0, 12.0, 7.0, 8.0, 6.0, 5.0, 4.0, 1.0, 3.0, 5.0, 0.0, 2.0, 2.0, 4.0, 2.0, 1.0, 1.0, 1.0, 0.0, 0.0, 1.0], "bins": [-56.428001403808594, -54.6031494140625, -52.778297424316406, -50.95344543457031, -49.12859344482422, -47.303741455078125, -45.47888946533203, -43.65403747558594, -41.829185485839844, -40.00433349609375, -38.179481506347656, -36.35462951660156, -34.52977752685547, -32.704925537109375, -30.88007164001465, -29.055219650268555, -27.230365753173828, -25.405513763427734, -23.58066177368164, -21.755809783935547, -19.930957794189453, -18.10610580444336, -16.281251907348633, -14.456399917602539, -12.631547927856445, -10.806695938110352, -8.981843948364258, -7.156991004943848, -5.332139015197754, -3.50728702545166, -1.68243408203125, 0.14241790771484375, 1.9672698974609375, 3.7921221256256104, 5.616974353790283, 7.441826820373535, 9.266678810119629, 11.091530799865723, 12.916383743286133, 14.741235733032227, 16.56608772277832, 18.390939712524414, 20.215791702270508, 22.040645599365234, 23.865497589111328, 25.690349578857422, 27.515201568603516, 29.34005355834961, 31.164905548095703, 32.9897575378418, 34.81460952758789, 36.639461517333984, 38.46431350708008, 40.28916549682617, 42.11402130126953, 43.938873291015625, 45.76372528076172, 47.58857727050781, 49.413429260253906, 51.23828125, 53.063133239746094, 54.88798522949219, 56.71283721923828, 58.537689208984375, 60.36254119873047]}, "gradients/encoder.lstm2.weight_ih_l0": {"_type": "histogram", "values": [1.0, 0.0, 0.0, 1.0, 0.0, 0.0, 0.0, 1.0, 1.0, 1.0, 2.0, 4.0, 1.0, 5.0, 2.0, 5.0, 12.0, 12.0, 8.0, 17.0, 32.0, 31.0, 46.0, 45.0, 56.0, 81.0, 335.0, 2516.0, 484.0, 101.0, 54.0, 46.0, 41.0, 44.0, 18.0, 23.0, 21.0, 14.0, 5.0, 5.0, 6.0, 3.0, 1.0, 3.0, 2.0, 1.0, 2.0, 0.0, 4.0, 0.0, 1.0, 1.0, 0.0, 0.0, 0.0, 0.0, 0.0, 0.0, 0.0, 0.0, 0.0, 0.0, 0.0, 1.0], "bins": [-419.8065185546875, -404.57421875, -389.3419189453125, -374.1096496582031, -358.8773498535156, -343.6450500488281, -328.41278076171875, -313.18048095703125, -297.94818115234375, -282.71588134765625, -267.48358154296875, -252.25131225585938, -237.01901245117188, -221.78671264648438, -206.55442810058594, -191.3221435546875, -176.08984375, -160.8575439453125, -145.62525939941406, -130.39297485351562, -115.16067504882812, -99.92838287353516, -84.69609069824219, -69.46379852294922, -54.23150634765625, -38.99921417236328, -23.766921997070312, -8.534629821777344, 6.697662353515625, 21.929954528808594, 37.16224670410156, 52.39453887939453, 67.6268310546875, 82.85912322998047, 98.09141540527344, 113.3237075805664, 128.55599975585938, 143.78829956054688, 159.0205841064453, 174.25286865234375, 189.48516845703125, 204.71746826171875, 219.9497528076172, 235.18203735351562, 250.41433715820312, 265.6466369628906, 280.87890625, 296.1112060546875, 311.343505859375, 326.5758056640625, 341.80810546875, 357.0403747558594, 372.2726745605469, 387.5049743652344, 402.73724365234375, 417.96954345703125, 433.20184326171875, 448.43414306640625, 463.66644287109375, 478.8987121582031, 494.1310119628906, 509.3633117675781, 524.5955810546875, 539.827880859375, 555.0601806640625]}, "gradients/encoder.lstm2.weight_hh_l0": {"_type": "histogram", "values": [1.0, 0.0, 0.0, 0.0, 0.0, 0.0, 0.0, 1.0, 0.0, 2.0, 1.0, 1.0, 1.0, 1.0, 4.0, 4.0, 4.0, 8.0, 5.0, 13.0, 9.0, 12.0, 17.0, 19.0, 19.0, 30.0, 36.0, 37.0, 47.0, 54.0, 80.0, 174.0, 950.0, 1888.0, 239.0, 89.0, 52.0, 46.0, 53.0, 27.0, 36.0, 28.0, 20.0, 9.0, 18.0, 9.0, 14.0, 8.0, 5.0, 3.0, 8.0, 5.0, 2.0, 2.0, 0.0, 0.0, 0.0, 2.0, 1.0, 0.0, 0.0, 0.0, 0.0, 2.0], "bins": [-173.4104766845703, -168.17440795898438, -162.9383544921875, -157.70228576660156, -152.46621704101562, -147.23016357421875, -141.9940948486328, -136.75802612304688, -131.52197265625, -126.2859115600586, -121.04984283447266, -115.81378173828125, -110.57771301269531, -105.3416519165039, -100.1055908203125, -94.86952209472656, -89.63345336914062, -84.39739227294922, -79.16132354736328, -73.92526245117188, -68.68919372558594, -63.45313262939453, -58.217071533203125, -52.98100662231445, -47.74494171142578, -42.50887680053711, -37.27281188964844, -32.03675079345703, -26.80068588256836, -21.564620971679688, -16.32855796813965, -11.09249496459961, -5.856414794921875, -0.6203508377075195, 4.615713119506836, 9.851777076721191, 15.087841033935547, 20.32390594482422, 25.559968948364258, 30.796031951904297, 36.03209686279297, 41.26816177368164, 46.50422668457031, 51.74028778076172, 56.97635269165039, 62.21241760253906, 67.44847869873047, 72.68453979492188, 77.92060852050781, 83.15666961669922, 88.39273834228516, 93.62879943847656, 98.8648681640625, 104.1009292602539, 109.33699035644531, 114.57305908203125, 119.80912017822266, 125.04518127441406, 130.28125, 135.51731872558594, 140.7533721923828, 145.98944091796875, 151.2255096435547, 156.46156311035156, 161.6976318359375]}, "gradients/encoder.lstm2.bias_hh_l0": {"_type": "histogram", "values": [1.0, 0.0, 0.0, 0.0, 0.0, 0.0, 0.0, 1.0, 1.0, 1.0, 0.0, 2.0, 0.0, 1.0, 1.0, 2.0, 2.0, 0.0, 0.0, 0.0, 2.0, 0.0, 1.0, 0.0, 0.0, 9.0, 7.0, 29.0, 25.0, 14.0, 13.0, 0.0, 0.0, 1.0, 0.0, 0.0, 0.0, 3.0, 0.0, 0.0, 0.0, 1.0, 0.0, 2.0, 1.0, 1.0, 0.0, 1.0, 1.0, 2.0, 1.0, 0.0, 1.0, 0.0, 0.0, 0.0, 0.0, 0.0, 0.0, 0.0, 0.0, 0.0, 0.0, 1.0], "bins": [-578.6574096679688, -557.8854370117188, -537.1134643554688, -516.3414306640625, -495.5694580078125, -474.7974853515625, -454.0255126953125, -433.2535400390625, -412.4815368652344, -391.7095642089844, -370.93756103515625, -350.16558837890625, -329.39361572265625, -308.6216125488281, -287.8496398925781, -267.07763671875, -246.3056640625, -225.53367614746094, -204.76168823242188, -183.98971557617188, -163.2177276611328, -142.44573974609375, -121.67375946044922, -100.90177917480469, -80.12979125976562, -59.35780715942383, -38.58582305908203, -17.813838958740234, 2.9581451416015625, 23.730133056640625, 44.502113342285156, 65.27409362792969, 86.04608154296875, 106.81806945800781, 127.59004974365234, 148.36203002929688, 169.13401794433594, 189.906005859375, 210.677978515625, 231.44996643066406, 252.22195434570312, 272.9939270019531, 293.76593017578125, 314.53790283203125, 335.30987548828125, 356.0818786621094, 376.8538513183594, 397.6258544921875, 418.3978271484375, 439.1697998046875, 459.9418029785156, 480.7137756347656, 501.48577880859375, 522.2577514648438, 543.0297241210938, 563.8016967773438, 584.57373046875, 605.345703125, 626.11767578125, 646.8897094726562, 667.6616821289062, 688.4336547851562, 709.2056274414062, 729.9776000976562, 750.7495727539062]}, "gradients/encoder.lstm2.bias_ih_l0": {"_type": "histogram", "values": [1.0, 0.0, 0.0, 0.0, 0.0, 0.0, 0.0, 1.0, 1.0, 1.0, 0.0, 2.0, 0.0, 1.0, 1.0, 2.0, 2.0, 0.0, 0.0, 0.0, 2.0, 0.0, 1.0, 0.0, 0.0, 9.0, 7.0, 29.0, 25.0, 14.0, 13.0, 0.0, 0.0, 1.0, 0.0, 0.0, 0.0, 3.0, 0.0, 0.0, 0.0, 1.0, 0.0, 2.0, 1.0, 1.0, 0.0, 1.0, 1.0, 2.0, 1.0, 0.0, 1.0, 0.0, 0.0, 0.0, 0.0, 0.0, 0.0, 0.0, 0.0, 0.0, 0.0, 1.0], "bins": [-578.6574096679688, -557.8854370117188, -537.1134643554688, -516.3414306640625, -495.5694580078125, -474.7974853515625, -454.0255126953125, -433.2535400390625, -412.4815368652344, -391.7095642089844, -370.93756103515625, -350.16558837890625, -329.39361572265625, -308.6216125488281, -287.8496398925781, -267.07763671875, -246.3056640625, -225.53367614746094, -204.76168823242188, -183.98971557617188, -163.2177276611328, -142.44573974609375, -121.67375946044922, -100.90177917480469, -80.12979125976562, -59.35780715942383, -38.58582305908203, -17.813838958740234, 2.9581451416015625, 23.730133056640625, 44.502113342285156, 65.27409362792969, 86.04608154296875, 106.81806945800781, 127.59004974365234, 148.36203002929688, 169.13401794433594, 189.906005859375, 210.677978515625, 231.44996643066406, 252.22195434570312, 272.9939270019531, 293.76593017578125, 314.53790283203125, 335.30987548828125, 356.0818786621094, 376.8538513183594, 397.6258544921875, 418.3978271484375, 439.1697998046875, 459.9418029785156, 480.7137756347656, 501.48577880859375, 522.2577514648438, 543.0297241210938, 563.8016967773438, 584.57373046875, 605.345703125, 626.11767578125, 646.8897094726562, 667.6616821289062, 688.4336547851562, 709.2056274414062, 729.9776000976562, 750.7495727539062]}, "gradients/encoder.lstm1.weight_ih_l0": {"_type": "histogram", "values": [3.0, 1.0, 2.0, 3.0, 4.0, 4.0, 6.0, 3.0, 5.0, 5.0, 8.0, 1.0, 2.0, 3.0, 3.0, 0.0, 0.0, 0.0, 0.0, 0.0, 3.0, 5.0, 9.0, 16.0, 44.0, 37.0, 59.0, 66.0, 41.0, 91.0, 130.0, 196.0, 312.0, 661.0, 2533.0, 13183.0, 1450.0, 426.0, 283.0, 149.0, 161.0, 124.0, 101.0, 49.0, 35.0, 34.0, 18.0, 17.0, 17.0, 8.0, 13.0, 7.0, 8.0, 1.0, 1.0, 0.0, 1.0, 0.0, 1.0, 3.0, 0.0, 0.0, 1.0, 5.0], "bins": [-734.8157348632812, -714.0433959960938, -693.2710571289062, -672.4986572265625, -651.726318359375, -630.9539794921875, -610.181640625, -589.4093017578125, -568.6369018554688, -547.8645629882812, -527.0922241210938, -506.3198547363281, -485.5474853515625, -464.775146484375, -444.0028076171875, -423.2304382324219, -402.4580993652344, -381.6857604980469, -360.91339111328125, -340.14105224609375, -319.3686828613281, -298.5963439941406, -277.823974609375, -257.0516357421875, -236.27928161621094, -215.50692749023438, -194.7345733642578, -173.96221923828125, -153.18988037109375, -132.41751098632812, -111.64517211914062, -90.87281799316406, -70.1004638671875, -49.32810974121094, -28.55575942993164, -7.783409118652344, 12.988945007324219, 33.76129913330078, 54.53364562988281, 75.30599975585938, 96.07835388183594, 116.8507080078125, 137.62306213378906, 158.39541625976562, 179.16775512695312, 199.94012451171875, 220.71246337890625, 241.4848175048828, 262.2571716308594, 283.0295104980469, 303.8018798828125, 324.57421875, 345.3465881347656, 366.1189270019531, 386.89129638671875, 407.66363525390625, 428.43597412109375, 449.20831298828125, 469.9806823730469, 490.7530212402344, 511.525390625, 532.2977294921875, 553.070068359375, 573.8424072265625, 594.6148071289062]}, "gradients/encoder.lstm1.bias_ih_l0": {"_type": "histogram", "values": [1.0, 0.0, 0.0, 0.0, 0.0, 1.0, 0.0, 0.0, 0.0, 1.0, 0.0, 1.0, 4.0, 0.0, 1.0, 1.0, 1.0, 3.0, 3.0, 2.0, 18.0, 40.0, 28.0, 8.0, 2.0, 2.0, 2.0, 1.0, 1.0, 2.0, 0.0, 0.0, 0.0, 0.0, 2.0, 0.0, 2.0, 0.0, 0.0, 0.0, 0.0, 0.0, 0.0, 0.0, 0.0, 0.0, 0.0, 0.0, 0.0, 0.0, 0.0, 0.0, 0.0, 0.0, 0.0, 0.0, 0.0, 0.0, 0.0, 0.0, 0.0, 0.0, 0.0, 1.0], "bins": [-719.6328125, -686.268798828125, -652.90478515625, -619.540771484375, -586.1767578125, -552.812744140625, -519.44873046875, -486.084716796875, -452.720703125, -419.356689453125, -385.99267578125, -352.628662109375, -319.2646484375, -285.900634765625, -252.53662109375, -219.172607421875, -185.80859375, -152.444580078125, -119.08056640625, -85.716552734375, -52.3525390625, -18.988525390625, 14.37548828125, 47.739501953125, 81.103515625, 114.467529296875, 147.83154296875, 181.195556640625, 214.5595703125, 247.923583984375, 281.28759765625, 314.651611328125, 348.0155029296875, 381.3795166015625, 414.7435302734375, 448.1075439453125, 481.4715576171875, 514.8355712890625, 548.1995849609375, 581.5635986328125, 614.9276123046875, 648.2916259765625, 681.6556396484375, 715.0196533203125, 748.3836669921875, 781.7476806640625, 815.1116943359375, 848.4757080078125, 881.8397216796875, 915.2037353515625, 948.5677490234375, 981.9317626953125, 1015.2957763671875, 1048.6597900390625, 1082.0238037109375, 1115.3878173828125, 1148.7518310546875, 1182.1158447265625, 1215.4798583984375, 1248.8438720703125, 1282.2078857421875, 1315.5718994140625, 1348.9359130859375, 1382.2999267578125, 1415.6639404296875]}, "gradients/encoder.lstm1.weight_hh_l0": {"_type": "histogram", "values": [1.0, 0.0, 0.0, 0.0, 0.0, 0.0, 1.0, 0.0, 1.0, 1.0, 0.0, 1.0, 0.0, 0.0, 1.0, 4.0, 3.0, 4.0, 9.0, 6.0, 12.0, 18.0, 37.0, 57.0, 125.0, 570.0, 2846.0, 197.0, 91.0, 29.0, 28.0, 23.0, 5.0, 6.0, 4.0, 1.0, 2.0, 2.0, 0.0, 7.0, 0.0, 2.0, 0.0, 0.0, 0.0, 0.0, 0.0, 0.0, 0.0, 1.0, 0.0, 0.0, 0.0, 0.0, 0.0, 0.0, 0.0, 0.0, 0.0, 0.0, 0.0, 0.0, 0.0, 1.0], "bins": [-665.2276000976562, -639.8673095703125, -614.5069580078125, -589.1466674804688, -563.786376953125, -538.4260864257812, -513.0657958984375, -487.7054443359375, -462.34515380859375, -436.98486328125, -411.6245422363281, -386.26422119140625, -360.9039306640625, -335.54364013671875, -310.1833190917969, -284.822998046875, -259.46270751953125, -234.10240173339844, -208.74209594726562, -183.3817901611328, -158.021484375, -132.6611785888672, -107.30087280273438, -81.94056701660156, -56.58026123046875, -31.219955444335938, -5.859649658203125, 19.500656127929688, 44.8609619140625, 70.22126770019531, 95.58157348632812, 120.94187927246094, 146.30224609375, 171.6625518798828, 197.02285766601562, 222.38316345214844, 247.74346923828125, 273.103759765625, 298.4640808105469, 323.82440185546875, 349.1846923828125, 374.54498291015625, 399.9053039550781, 425.265625, 450.62591552734375, 475.9862060546875, 501.3465270996094, 526.7068481445312, 552.067138671875, 577.4274291992188, 602.7877197265625, 628.1480712890625, 653.5083618164062, 678.86865234375, 704.22900390625, 729.5892944335938, 754.9495849609375, 780.3098754882812, 805.670166015625, 831.030517578125, 856.3908081054688, 881.7510986328125, 907.1114501953125, 932.4717407226562, 957.83203125]}, "gradients/encoder.lstm1.bias_hh_l0": {"_type": "histogram", "values": [1.0, 0.0, 0.0, 0.0, 0.0, 1.0, 0.0, 0.0, 0.0, 1.0, 0.0, 1.0, 4.0, 0.0, 1.0, 1.0, 1.0, 3.0, 3.0, 2.0, 18.0, 40.0, 28.0, 8.0, 2.0, 2.0, 2.0, 1.0, 1.0, 2.0, 0.0, 0.0, 0.0, 0.0, 2.0, 0.0, 2.0, 0.0, 0.0, 0.0, 0.0, 0.0, 0.0, 0.0, 0.0, 0.0, 0.0, 0.0, 0.0, 0.0, 0.0, 0.0, 0.0, 0.0, 0.0, 0.0, 0.0, 0.0, 0.0, 0.0, 0.0, 0.0, 0.0, 1.0], "bins": [-719.6328125, -686.268798828125, -652.90478515625, -619.540771484375, -586.1767578125, -552.812744140625, -519.44873046875, -486.084716796875, -452.720703125, -419.356689453125, -385.99267578125, -352.628662109375, -319.2646484375, -285.900634765625, -252.53662109375, -219.172607421875, -185.80859375, -152.444580078125, -119.08056640625, -85.716552734375, -52.3525390625, -18.988525390625, 14.37548828125, 47.739501953125, 81.103515625, 114.467529296875, 147.83154296875, 181.195556640625, 214.5595703125, 247.923583984375, 281.28759765625, 314.651611328125, 348.0155029296875, 381.3795166015625, 414.7435302734375, 448.1075439453125, 481.4715576171875, 514.8355712890625, 548.1995849609375, 581.5635986328125, 614.9276123046875, 648.2916259765625, 681.6556396484375, 715.0196533203125, 748.3836669921875, 781.7476806640625, 815.1116943359375, 848.4757080078125, 881.8397216796875, 915.2037353515625, 948.5677490234375, 981.9317626953125, 1015.2957763671875, 1048.6597900390625, 1082.0238037109375, 1115.3878173828125, 1148.7518310546875, 1182.1158447265625, 1215.4798583984375, 1248.8438720703125, 1282.2078857421875, 1315.5718994140625, 1348.9359130859375, 1382.2999267578125, 1415.6639404296875]}, "valid_loss": 12231.65625, "_wandb": {"runtime": 166}}